789 100
이 -0.001371934 0.0007833969 0.0053161294 0.009505706 -0.008959961 -0.008228674 0.0072092293 0.011321013 -0.0058142636 -0.0043691993 0.0064904043 -0.002623197 -0.004227492 0.006488695 -0.004544005 -0.0024129862 0.002686038 0.00015758704 -0.008709657 -0.010792475 0.00794575 0.0050143856 0.007451586 0.0002409942 0.005953433 -0.0033704024 -0.0016638357 0.005349557 -0.008180322 -0.0036986598 -0.006799814 -0.0007999495 0.010148162 -0.00767988 -0.0024703096 -0.00041192945 0.008201904 -0.0074190255 -0.00073723175 -0.0059483713 -0.009666998 0.0038184149 -0.008566119 -0.0038718435 0.0004966299 -0.00044837152 -0.00843298 0.009717899 0.0051521696 0.009523216 -0.007702078 0.0032429355 -0.0040469323 0.0006359615 0.007951657 -0.00391144 0.005017812 -0.0070044813 -0.0050816187 0.009746263 -0.0020619298 0.0003788852 -0.0044345655 -0.008634533 -0.0024517206 0.0027785618 -0.00015456587 0.0064608813 -0.004238847 0.00311773 0.0048998483 0.0088557415 -0.00037981576 -0.00946165 0.004984128 0.0012921942 0.007803656 -0.0013992612 -0.0037886812 -0.008528685 -0.0019249396 0.0021968812 0.004588005 0.008928222 -0.006004398 0.0018298859 0.006261513 -0.0034432542 -0.0020004606 0.0074081174 0.0028689345 0.0005966316 0.0031065738 0.00045366018 0.011020444 0.0062602656 -0.00827933 -0.008214604 0.0017623104 0.006025835
... -0.009282858 0.003963687 0.005238967 0.0060078385 0.007669593 -0.007106221 0.0016106538 0.0077243294 -0.0032845745 -0.0064520855 -0.0010758574 -0.00919614 -0.0053983494 0.0070528793 0.0035063485 0.0068502114 0.007002401 0.007045555 -0.0040158713 -0.001503365 0.0027600308 -0.004599991 0.0090517765 -0.010055212 0.006485427 0.002909049 -0.0056037162 0.0041422565 -0.0022389637 0.006853907 0.010787347 -0.004115588 -0.0001253458 -0.005853847 0.0036365734 0.004047685 0.0069048824 0.005003937 0.009112766 0.008328554 0.007741836 -0.0077142464 -0.008985216 -9.877172e-07 -0.002881481 0.007580623 0.0050184326 -0.0014510092 0.0013566462 0.0018294085 0.008474522 -0.010511932 -0.00020849613 0.0033286058 -0.0014613303 0.008413555 0.009376453 0.0063305222 -0.0018079496 0.008265777 -0.008963963 0.0033745205 -0.0049204784 -0.0057873414 0.0025879294 0.0055578435 0.008116231 -0.0050117853 0.006253613 0.0072548133 -0.0042625796 -0.008463153 0.005895821 0.00620002 -0.00041488226 -0.0063876533 -0.007085392 -0.0027570906 0.0044248276 -0.0036780336 -0.009824765 0.0032571512 0.0042343345 -0.005252493 0.0010848396 -0.0021548958 0.00011885735 -0.008781621 0.00345987 -0.0045540887 0.0020275551 -0.0012441346 0.0020526801 -0.0076295095 -0.0013655559 0.0033641285 0.005847247 -0.003338338 -0.008821422 0.004288324
님 -0.00041866046 0.0032619492 -0.0066986657 -0.0011219674 0.007822436 0.006700895 -0.0036016782 0.0040190266 -0.008726402 0.0059791803 -0.00524871 -0.0038567018 0.009300863 0.00091460557 0.0076145413 -0.00655759 0.005163468 0.009456164 -0.008669815 -0.005691311 -0.006840182 -0.004817919 -0.0035320062 -0.008702501 0.007609079 -0.0049272603 0.008073368 0.0049836496 -0.006730016 0.0042773467 0.0060988795 -0.0072729634 -0.0069928854 -0.002779978 -0.0085942745 -0.00086203724 -0.00020869113 0.0025842 0.0012578674 -0.0014748716 -0.0055552647 0.0010370304 -0.0009762467 0.0068677175 0.0041922745 0.0042443527 0.0010470018 -0.002753772 -0.004122958 -0.00090782956 0.0020005817 -0.0033346205 -0.0071150158 -0.00787966 -0.00950024 -0.005672899 -0.0015503716 -0.004372011 -0.007211521 -0.003404413 0.0042912047 -0.0036092964 0.008170243 0.00093257835 -0.007835558 0.009712772 0.007919336 0.0060208966 -0.0076696775 0.0061948844 0.0038036376 0.0055734133 0.004773545 0.0019245443 -0.0027658616 0.00869301 0.009568301 0.0035067436 -0.003520675 -3.167353e-05 0.0009665004 -0.008869429 -0.008758225 0.0008892659 0.0011468268 -0.005818111 -0.00469853 -0.0067498814 0.008941679 0.00036294028 -0.0039213607 0.0059808847 0.009207423 -0.0039232075 0.008867374 0.005946017 0.0063116387 -0.000109792876 0.008501253 -0.0072281538
작가 -0.008810612 0.00958232 -0.00033083736 -0.0017257325 0.004834559 -0.005053145 0.00312281 0.00842366 0.005639174 -0.0077879224 0.008873716 0.0040696505 0.0038804575 -0.006089664 0.00875088 -0.0027085673 0.008976492 -0.0059361462 -0.008489405 0.006120041 0.0021634512 -0.0021955548 0.009836545 0.00935518 -0.010291027 0.0025360216 0.005776704 0.0036857142 0.0014576762 0.00075970835 0.0012984559 -0.0036127202 -0.006872284 -0.0023764262 0.0037940638 0.009672779 0.009486728 -0.0066437293 -0.009913831 0.009084573 0.003497521 0.004855278 0.0062968647 -0.002481644 0.0076548886 0.0025635762 0.0023457867 -0.0022557008 -0.002813838 -0.0022442099 0.004639087 -0.00079365715 -0.009546097 -0.009953097 -0.0066417097 0.00015659061 0.0021714305 0.009268233 0.0047960565 -0.004046048 0.00036613047 0.0050915075 0.0076561533 -0.0017946855 0.0035838678 -0.0056406064 -0.0006351578 0.008922611 -0.0033104678 -0.009284933 0.005527832 -0.0035577058 -0.00069869007 0.009810778 -0.0018281528 -0.004268281 -0.005174676 0.0069077327 -0.006676529 0.002113305 -0.0057909684 0.005901177 0.0037124194 0.003967403 -0.0018040778 -0.002770732 0.009113581 0.006049286 -0.0015601934 -0.00923145 -0.006694002 -0.0006583235 -0.00092630973 -0.0023489532 0.01069973 0.0002728957 0.0063559646 -0.008355047 -0.0020773064 -0.005907028
. -0.007849419 0.001579149 -0.0072459974 -0.0020325647 0.0038719529 0.0048325793 0.001530834 0.0040013185 -0.0045719384 0.006939096 -0.0070955944 0.003743268 -0.0081668105 0.002110141 -0.0050333063 -0.0046215067 -0.0028792485 0.004856072 0.0055498867 -0.0058922493 0.0014052971 -0.00854791 0.008198735 0.008866578 -0.003169529 0.0009802546 9.017134e-05 0.0051520984 -0.008992356 0.0011760993 0.0076753334 0.0023721892 0.0016538241 -0.009867286 0.0083228275 -0.005137545 -0.0028503607 0.0023672117 -0.0010188122 0.0003285147 0.0017498988 -0.0077289897 -0.009787368 0.009372003 0.0065369806 -0.007368577 0.0026623025 0.00035864845 0.0050502527 -0.0070378897 0.0047467514 0.0032196098 0.010158234 -0.004640552 -0.0019147024 -0.007073855 -0.009184683 -0.0093804225 -0.002101352 -0.006123568 0.0045498763 -0.006008441 0.0021401353 0.00019686665 -0.004184712 -0.0006320999 0.010325899 0.009902809 -0.005491573 0.009968253 -0.006052695 0.0061907033 -0.002434596 0.003059276 0.0035584362 0.007204073 -0.0022854449 0.008426825 0.0067899083 -0.009588864 -0.0086386325 -0.008231596 0.0021794755 -0.0011781721 -0.0071902685 -0.008550695 0.008418897 0.0029372154 -0.008524189 -0.0047004 0.003951858 -0.004387088 0.005188737 -0.0041043465 0.0038042734 -0.007384828 0.006738755 0.0039034474 0.0014161244 0.0028886301
가 -0.009477667 0.0024267118 -0.0007168693 -0.009142587 -0.009109126 -0.0023225842 0.0047145737 0.005454877 -0.0072043976 -0.0072116596 -0.005902476 -0.0030946238 -0.007157786 -0.009510034 -0.002670466 -0.008934258 -0.0058707604 -0.006355409 -0.0025922258 -0.0025896626 -0.008640602 -0.0007819872 0.008649672 0.0073731025 -0.007478116 -0.0036424028 0.0024425073 -0.009973604 0.0011566135 0.006852038 0.006530779 -0.008717246 -0.0040178937 -0.008275839 -0.00018808343 0.01030558 0.00599705 0.004173335 0.004584876 -0.003959301 0.009609233 -0.00810843 -0.007292349 -0.0019855192 -0.0006108155 -0.003646055 -0.0010713766 0.0074242502 -0.00053858594 -0.0013367301 0.0031862184 -0.009413971 0.008007076 0.008364881 -0.009933201 0.002697785 0.010281252 -0.007816272 -0.008058251 -0.0073733423 0.008164188 -0.0005854824 0.009053903 -0.008728093 0.0028928271 0.0029875683 0.0010024367 0.0031412174 -0.008404202 -0.008819388 0.0018563619 0.006663253 0.008794285 0.005580193 -0.0003533977 0.008683315 -0.009056867 0.0028286362 -0.00025296773 0.004105103 0.0067862985 -0.007279412 0.004837831 -0.008026381 -0.0011592023 -0.009027257 -0.005073968 0.010266309 -0.0010910169 0.0031768917 0.009889773 0.00930455 -0.008336392 -0.002542263 0.011154639 0.0058940854 -0.0011752669 -0.009405466 0.0034359877 -0.0068331747
에 0.007432627 -0.0041635493 -0.0011358969 0.0013818915 8.121567e-05 9.423509e-05 0.0065727523 0.0017784024 -0.0038335035 -0.0015985311 0.0050267274 0.0005978132 -0.0007139278 0.009374347 -0.004703695 -0.0014246779 0.009505618 0.0061226753 0.0010734054 -0.010060033 0.0017497947 -0.0023136192 0.009870119 0.0009043408 0.001118731 0.0025060521 -0.002562599 -0.0053094244 -0.00036341237 -0.0017279006 0.007387429 0.009128215 -8.20338e-05 0.0027046343 -0.0063443007 0.0027972856 -0.007003321 -0.009751778 -0.006382696 -0.009955875 0.007138212 -0.0066938116 0.008421089 -0.0069392473 0.0037022403 0.00934452 -0.008496325 -0.009971259 -0.0040741274 -0.0024492517 5.5618646e-05 -0.010069098 -0.008630498 0.002588299 -0.008815496 -0.0090090195 -0.0020511716 -0.008637595 -0.008302548 -0.007681729 -0.0004193507 -0.004422694 0.006435392 0.00082463445 -0.0042059715 0.006384856 -0.005706521 -0.0037092858 -0.00835884 -0.003571527 -0.0021679283 0.0068816845 -0.00204263 0.004508336 0.0075418693 -0.0071054646 0.0047375956 0.005863922 -0.0037848994 0.0062975213 0.0054180506 -0.007052813 -0.0076863915 0.004213432 -0.0020646434 -0.006421403 0.009686714 -0.004226386 -0.0056538424 7.179724e-05 -0.0016394434 0.00089313294 -0.00371928 -5.7161036e-05 0.00063367275 0.0016459337 0.008818288 -0.006533074 -0.0012461655 0.0053789066
너무 0.007703795 -0.004067074 0.009028104 0.008664835 -0.0044211587 -0.00061952363 0.0046134386 -0.002409257 -0.0061234753 -0.0068199937 -0.0012697192 -0.0011172941 0.0046241083 -0.002329511 0.00016367315 0.0021563824 0.0049813227 -0.0006433594 -0.006728541 -0.010211674 0.0005771817 0.006689623 0.0019170328 -0.0094653955 -0.008267312 0.006723313 -0.0043165786 0.0060083317 -0.007083439 0.008609622 -0.00597665 0.003293488 -0.0005187921 -0.006891868 -0.0034331093 -0.00023826255 -0.0053946185 -0.0021243126 -0.008315051 0.0016137761 0.008996227 -0.0031127955 -0.0009193163 0.003933885 0.008886896 -0.006354729 -0.0074735847 -0.0029439128 0.009391079 0.0011875229 -0.008522846 -0.0024577817 0.009696379 -0.007799267 -0.0059168558 0.009733036 -0.00853164 0.0036805724 -0.00018930633 0.0070637697 0.008297025 -0.0025494008 -0.0041971933 0.008353604 0.0012365916 0.0065833256 -0.009162016 0.010332066 -0.0024437201 -0.005307267 0.0026940496 -0.00034255357 0.005554083 -0.0025947983 -0.003658869 0.0026906691 0.008776929 -0.005353958 0.0019087087 -0.008147407 -0.0072581833 -0.00077654846 -0.009527056 0.0040802816 0.0014037119 -0.0026778362 0.005220276 0.0107242735 0.009290621 -0.0014852945 0.0030052634 -0.0038331146 -0.008359163 0.006557216 -0.00086611975 2.914454e-05 -0.0011399741 -0.005440428 0.0044713845 -0.0045969924
ㅋㅋㅋ -0.010024423 0.009470458 0.0041555716 0.009380822 0.0067120953 0.0022511347 0.010142064 -0.0032730438 -0.007320436 0.004014357 0.0033518989 -0.0062397867 0.009884662 -0.0035615042 0.009805952 0.0005672074 -0.006154729 -0.0024882948 -0.0077295313 -0.0037324924 0.0013407369 0.009495856 0.009680104 -0.006700309 0.0031929414 0.0024577854 -0.0030654937 -0.009442487 0.00070206175 -0.008028574 0.0066392226 -0.0056082476 0.005834714 0.009817685 -8.709068e-05 0.0052943435 -0.0017525381 0.006715925 0.0035104654 -0.009655797 -0.0025184506 0.0031144298 -0.0001566508 -0.0009960152 -0.0011172867 -0.0019432373 6.494443e-05 0.0044363346 -0.004222469 -0.003758407 6.590634e-05 -0.0003074464 5.241632e-05 -0.004738433 0.004114133 -0.0020100055 0.002478784 0.0006737805 0.0052288477 -0.006450071 -0.007001572 -0.004443546 0.0092807235 -0.0021853943 -0.010045894 -0.00031500775 -0.0041586002 0.0064639105 -0.010263027 0.0033012414 -0.00951304 0.0015495296 0.0065477043 0.0071357284 -0.0073442818 -0.0058283876 -0.006540974 -0.008076926 -0.009966289 -0.0021668556 -0.0011864415 -0.007505777 0.0064262473 0.0021130252 0.0056652687 0.0014131939 0.0008337602 -0.0067753377 -0.00162246 0.0046202354 -0.004505854 0.0014122389 0.0028560234 -0.0013657946 0.010739196 0.008750472 0.00284275 0.006572622 0.006156474 -0.0057611847
진짜 -0.0054872916 -0.0064296834 -0.007860981 0.008471867 -0.0018681299 -0.007499944 -0.003988066 0.0062205736 -0.0031460994 -0.0040025357 0.0010489066 -0.003413187 -0.0017064859 0.0013338748 -0.0029208688 0.008321965 0.0041538114 -0.010376014 0.0061838194 -0.0074853906 0.0012215372 0.00441502 -0.004933633 -0.0023123142 0.008021993 -0.0040040887 -0.008078633 0.008975649 -0.0026006112 -0.0044507696 0.009119869 0.0042791106 0.0047340463 0.009130831 -0.008858469 0.005739811 0.0020283135 0.003543377 0.0014380394 0.003753929 0.0042731147 0.0055932375 -0.003026418 -0.0043500382 -0.0003568338 0.0022203843 -0.0037722674 0.006174826 0.0040932666 0.007874184 0.002802656 0.0074346615 -0.0014091491 0.008055698 0.0033669388 -0.00800969 -0.0037929271 -0.0027409617 0.0041413833 -0.00067990687 -0.0030098597 0.008010607 0.009212943 -0.0019738367 -0.005696921 -0.0044605182 -0.004637725 -0.009209097 0.0008299108 -0.0038059573 0.0024344602 0.00592312 -0.00359543 -0.009982001 0.0019864945 -0.006420112 0.0024773297 -0.0040179295 0.0066296067 0.0005403311 0.0030963642 -0.003137436 -0.0021142513 0.008792696 0.0013364321 -0.0062024915 -0.0076318006 0.0017833762 0.00690117 0.0055307704 -0.008449992 0.008740409 0.004048775 0.007620302 0.010479531 -0.0069428426 -0.008439593 0.0053811995 0.009698459 0.0033054373
을 0.0066005145 -0.0012981604 0.007863261 -0.009305715 -0.008067435 -0.007539406 -0.0038139476 0.006437816 -0.004165755 -0.008420707 0.0077871517 -0.004379988 0.008847152 -0.0048134048 0.004118828 0.00442064 0.0025664072 -0.0035356095 0.0024882979 -0.009221485 -0.002545271 -0.0026004112 0.0077019376 -0.0037638093 -0.0070093297 0.004437098 -0.0009871939 -0.0039262213 0.006614683 0.004212397 -0.003309716 0.0009022416 0.00954904 0.0076576876 0.0061927093 0.005721637 0.0024014588 -0.0026258675 -0.0067684166 -0.0010879462 -0.0017101599 -0.0012038804 -0.006419265 0.0076134778 -0.0065224096 -0.007503462 -0.0032890332 -0.0014574165 -0.0074663796 0.00076343934 -0.004937729 -0.0020655352 -0.007322668 0.0020462794 0.0028746855 0.00021391084 -0.005242546 -0.0018035629 0.006093395 0.0041857217 -0.009008265 -0.0034769517 0.002098783 0.0015814343 -0.010121278 0.0049191327 -0.008288477 -0.0068141883 0.0027104989 -0.002934298 0.003287685 0.009167366 -0.0028426945 0.009217383 0.0020795928 0.010353564 0.0057221274 -0.00932858 -0.00405074 0.006564508 0.0052079507 0.008278306 0.006342477 0.009147476 -0.010181633 0.003963942 -0.0049602166 0.0042162985 0.0067783752 0.004715614 0.008211738 0.0019086556 -0.0013023019 0.0059465654 -0.0045249797 0.00054487825 0.010005175 -0.0061702095 0.0038500342 -0.008395017
의 0.009252412 0.008567781 0.001187141 0.0053706313 0.0015376336 -0.007143923 -0.0009468798 0.008057159 -0.005024653 -0.0042169266 0.0043697185 0.0019772125 -0.0015224733 -0.002927338 0.0062513594 -0.0060093235 -0.0032629045 -0.007031517 -0.004713828 -0.009347798 -0.0041533518 -0.008535282 0.0016629724 -0.008614528 -0.010273196 -0.008310162 -0.0074512805 0.006352746 0.0033750422 0.0006047796 -0.002389661 -0.0072701643 0.0010245232 0.00024279625 -2.9576242e-05 0.0018683211 0.0009225656 -0.00085079315 -0.008503135 -0.006598331 -0.008625831 -0.0020462452 0.0019694886 0.007658412 -0.0016694834 -0.0026435202 0.008974854 0.0001718055 -0.002394224 0.008723653 0.00313782 -0.0062467023 0.0064132595 0.004124432 -0.007333641 -0.0001264216 0.0011028941 0.005591728 -0.0027612487 -0.0022451435 0.0013814952 0.0009576085 0.0010818618 -0.003305854 -0.0067505874 0.007658584 0.008021437 0.009027697 -0.009473015 0.0029918824 -0.0039572944 0.009769025 0.0033685737 0.0045164013 0.0028190787 0.0071349335 -0.005564192 0.0075611654 -0.003149535 -0.004358933 -0.0025290158 0.009362902 -0.0074948617 -0.00096099806 0.0067174337 -0.00020750606 -0.0061680092 -0.0055769193 0.00957435 0.006636367 0.0054901135 -0.0029383914 -0.009435109 0.0040164385 0.008332087 -0.0049788635 -0.00730028 -0.0036461963 -0.004552973 -0.0025999842
를 -0.0024795523 -0.0050301375 0.009507327 -0.009132216 0.0049181175 0.0045765704 -0.0014230981 0.010534983 0.009613529 -0.005681463 -0.0067877006 -0.007366806 -0.008058471 -0.0030427328 -0.005470281 -0.0088306 0.0006405345 0.0024342837 0.0061017196 -0.0033588198 -0.004008976 0.001124469 0.0005995626 0.0079216035 -0.00012108505 0.0073053925 -0.008667492 0.008101616 -0.0024020637 0.008979924 -0.007063036 0.0017491073 0.0015470815 -8.948884e-05 -0.0052573634 -0.00821354 -0.007355611 -0.008667796 0.0015609978 -0.00029958267 -0.0018035487 0.0065225703 -0.0024024474 -0.0010901183 -0.008824872 -0.010322684 0.008544749 -0.005798836 -0.0061091795 0.0053950534 0.0072791474 -0.007999283 0.0008930421 -0.006204466 0.001408149 -0.004016229 -0.0032008395 0.0019136649 0.007683874 0.006882994 -0.009778673 -0.005495845 0.007590571 0.0015597964 -0.00485415 0.00096733304 0.009815956 -0.00039359482 -0.01031326 0.0022369933 0.0059580635 0.0066574872 0.0046943706 -0.005711244 0.00010228145 0.0002763331 0.004719644 -0.008346413 -0.008651061 0.00041556297 -0.009079514 0.0054171337 -0.0010906926 0.0111134285 -0.0055759535 -0.0007070571 0.0079343505 -0.003208001 -0.004395266 0.0017952381 0.0032102198 -0.0022478465 0.006283275 -0.007461441 0.0042816107 0.0010915186 0.009203317 0.0052284664 0.00718271 0.0076166727
거 -0.010211758 0.010051736 -0.007643552 -0.002417282 -0.0047932686 -0.005792731 -0.0077605345 -0.0063165263 -0.0049914895 -0.001411174 -0.005603989 0.0054254034 -0.009384234 -0.005164521 0.009616685 0.006619213 0.007809825 0.0035709303 0.00039715564 -0.007007058 0.006379645 0.0026840658 0.007871732 0.006197836 0.0076784855 0.008695875 -0.01064727 -0.006972448 0.0010151893 0.006664059 0.008219176 0.005825527 0.008153277 -0.005489541 0.006259567 -0.003237812 -0.009156249 0.008328945 0.00070296694 -0.0037609024 -0.0025966454 -0.0049643037 0.0047367467 0.0047600814 -0.002471548 -0.007648036 -0.0041259816 -0.00041717864 0.006279438 -0.0026054066 0.00038941062 -8.844576e-05 -0.0072009 0.0020067517 -0.0017147694 0.003137785 0.005231097 -0.0017150581 -0.0038964553 0.008255213 0.0049375603 0.0069591748 0.0043567284 0.008009186 0.0067799054 -0.00087457243 0.009183181 0.0053699557 0.0045108995 -0.0008165718 -0.0023034196 -0.004118901 -0.008050333 0.0028083597 0.009345997 0.009300381 -0.0016830654 0.0059312796 0.0031206333 -0.004169497 0.0012018218 -0.0056592813 0.0074593406 0.006818788 0.0029041253 0.003954877 0.008938299 0.008249022 3.053793e-05 -0.006804542 0.00925554 0.007562624 0.0015256827 -0.0010868942 -0.0047556274 -0.0038126002 0.008853319 -0.0039938637 -0.0059171105 0.009670728
도 0.007205738 0.009297216 0.0011283767 -0.008439747 0.008582573 -0.0045824256 0.0059663304 0.005805623 0.009393401 -0.009585236 0.00862991 -0.009900337 -0.0067850384 -0.009179186 -0.005547635 0.0072271973 0.009229815 -0.0041889027 0.0034883618 -0.0044012014 0.008298686 0.005949117 0.00038155523 -0.0039266273 -0.0075748703 0.0047332896 0.0011202558 -0.0030974555 0.007657834 -0.003885824 -0.008711316 -0.0021214487 0.0005940468 -0.0066331318 -0.0057603735 -0.0075639426 0.009041651 0.0063371845 -0.0007225458 0.006692602 0.0080945585 -0.0015385486 0.0065912376 0.003826949 0.0052600564 0.0072322255 -0.0052267252 -0.0021078815 0.0009786922 0.004338451 0.0037580696 0.0043674367 0.004631182 -0.008452092 -0.0035259326 -0.0072697825 0.010132346 0.0050466945 -0.0006210395 0.004367348 -0.007901051 -0.006291906 0.0027362255 0.0059550633 0.0033494185 0.006260645 -0.0016437212 -0.0028690095 -0.0005510081 -0.0027127778 -0.0058975406 -0.007460562 0.007486325 -0.0013699306 -0.0016130393 -0.0075800745 0.0095989425 0.00062833756 0.0012000141 0.002532476 -0.008111696 0.0012755906 0.0024454263 -0.007438384 0.0046684844 0.0020642467 0.0077155256 0.0057588955 -0.0024873388 -0.0069836387 0.007876915 0.0021179554 0.005255998 0.0065948917 0.0029009394 -0.0056734965 0.00055719406 0.0076829577 -0.0057638325 0.009291157
는 -0.007673016 0.004517995 0.0022980045 0.007758322 -0.004913599 -0.005402208 -0.0057768496 0.0048353532 -0.004776881 0.008317585 -0.0047727823 -0.009768661 -0.004599467 0.006475989 -0.006349598 -0.005756185 -0.0071221883 0.0055698366 0.0031817749 0.0020242697 -0.002819241 0.0059976364 -0.0058019254 -0.0022414697 -0.0063343393 -0.0010295596 -0.002543629 0.008097357 -6.146945e-05 -0.008309028 -0.004772053 -0.0066775256 0.003300659 0.009165937 -0.005851318 0.009338137 0.008640205 -0.007952043 -0.009328071 0.008785393 0.008220012 -0.0053453525 -0.0065303836 0.0079706665 0.0040342174 0.007847806 -0.008049837 -0.009599751 0.0018005793 -0.009640204 -0.0045278207 -0.004359605 0.009668462 0.008846819 -0.0031214773 0.0060639796 0.008534357 -0.0024701536 0.008632941 0.00768525 0.0020734363 -0.003728915 -0.005308071 -0.0035097115 0.0073722317 -0.0058462103 -0.0028641247 0.00994284 0.0026634077 0.0066994214 -0.008303023 -0.00041846087 0.0061629633 -0.0049708877 0.007798707 0.009728353 -0.00023324662 -0.002196486 -0.0011219203 -0.0059097945 -0.009080616 -0.0018431543 -0.0030906335 0.005291773 -0.007222014 0.0052298214 -0.006532862 -0.007036651 0.009301095 0.009242694 -0.002820898 0.003867253 -0.005969151 -0.008420156 -0.0045800037 0.007096141 0.0067873374 0.008846446 0.0073531526 0.006632637
? 0.0008860737 -0.009653415 0.004769797 -0.00033047728 0.0065725464 0.0012066872 -0.0030152192 0.008641538 0.0012643943 -9.364345e-05 -0.005007817 -0.008922884 -0.007741822 0.008798287 -0.008857568 0.008778763 -0.009213353 -0.0005692371 -0.002113431 -0.009675576 0.009004525 0.0067793634 0.0033126385 0.0047668186 0.00014749759 0.00956409 0.006739899 -0.010148585 -0.0048188255 -0.0011591931 0.0035610935 -0.0042947843 0.001913891 -0.007969884 0.002646639 0.0054145865 0.0049298448 -0.0038026094 -0.008922956 -0.009989453 -0.0009887855 -0.007844902 -0.006778972 0.0062600365 0.0074387267 0.0019126408 -0.008405846 -0.005771341 0.008139031 0.004116105 -0.005047979 -0.008062008 0.0007890567 0.0034242128 0.0018937349 0.0031787783 -0.0054057455 -0.010170533 -0.0076730624 0.00050073984 0.0045224107 0.0047495086 0.0017070194 0.0049088043 -0.0006462351 0.004241906 -0.008985456 0.008137019 0.005460717 0.005732444 0.0071030916 0.008711865 0.0011475036 -0.0018807567 0.0006416023 -0.009226403 0.008503183 -0.0065988167 0.008127293 -0.0043360614 0.0003136692 -0.0094661815 -0.010027706 -0.0069274367 -0.007892707 0.00015235544 -0.007125648 -0.004364305 -0.004837861 -0.0039885994 0.0076293102 0.0049321614 0.008417105 0.00730848 -0.005109011 0.0077176415 -0.00908875 -0.003134593 -0.0076258117 0.0040750774
ㅠㅠ 0.0015372589 0.0071724025 0.0030910363 -0.006864532 0.007796745 -0.0063413912 0.009170415 0.00362253 -0.0041175312 -0.004753713 -0.004588538 -0.006448105 0.009521372 -0.0026471429 0.0078018145 -0.00983756 0.0021075082 -0.0015235293 0.0073840288 -0.00933255 0.007644228 -0.0052192314 -0.0058690757 -0.0057538757 -0.0035320881 -0.003505072 -0.0033915893 -0.0076497872 0.0006413251 -0.00053403934 -0.0013986297 0.003807689 -0.007439832 -0.0032775814 0.005079637 0.008838148 -0.009798552 0.0068912543 0.005081497 -0.004185153 0.008556328 -0.009523208 0.0071699135 0.0055243294 0.0013448957 -0.005326551 -0.004328571 -0.00332485 0.001737329 0.0017264681 0.0075023803 0.009604475 0.008923246 -0.004157246 0.009614324 -0.00047440742 0.0049766535 0.0026018966 -0.0011216123 0.0038130244 -0.005376072 -0.0057148933 -0.007706865 0.0016692189 0.0062487866 0.0010580545 0.0014380465 0.0035471364 0.007784208 -0.0074633937 0.0021626384 -0.007444712 0.0039406056 0.009431577 0.00761866 0.0066569736 0.007997898 0.0065031154 0.006557272 0.008717319 -0.0051475237 0.009061637 0.0047609205 -0.0016872439 0.008346931 0.0050774417 0.009817062 0.0030852722 0.010173591 0.0013952953 0.009495415 0.0036400128 0.0064581484 -0.0035316935 0.0071789026 0.0074339597 -0.0019201422 -0.0021830306 0.0037116108 -0.0071338457
게 0.009146797 -0.009636009 -0.006549057 0.0028311065 0.0066472953 -0.0061990866 0.0030077174 0.010270734 -0.0072490573 -0.006315452 -0.0054734084 -0.004376919 0.0018042737 0.009904776 0.0065550343 -0.00014138379 0.0026855296 0.008017042 0.009264966 0.0048997863 0.006537753 -0.007964857 -0.0035677617 -0.0058900113 0.0060536447 -0.002109372 -0.009241672 0.0074933735 0.008009186 -0.0031964348 0.010014731 -0.0006380423 -0.0031568462 -0.00067089545 0.00023425573 -0.0026267138 0.0027750218 0.004789903 0.0065246043 -0.009980289 -0.0025349339 -0.006246769 0.007684556 0.0067262985 -0.0041826633 0.0020301004 -0.0067249928 0.00029553304 0.009635992 -0.002413028 -0.004689233 -0.008202859 -0.0028569733 -0.0008476524 0.0032837205 0.009770785 -0.0030515757 0.0018066646 0.008751815 0.0017229506 0.00087716785 0.010187869 0.009027398 0.0073398114 -0.0068917326 0.010163201 0.00628322 0.009849852 -0.002815625 0.0040494767 0.0065336237 -0.0035103383 0.0071532875 0.002360171 0.009823721 -0.0028260795 -0.0032934584 0.006225682 -0.009665314 -0.007512166 -0.0069737216 -0.0011070637 -0.003199026 0.008142738 0.008949562 -0.0010659797 0.0016092566 0.0025327227 -0.0012784941 -0.0078066727 0.008314631 -0.0041606342 0.004153955 0.009250692 0.0038018513 0.0036219899 0.004349869 -0.0036445307 0.0042470857 0.00030645265
.. 0.005033191 0.0057128198 0.0017366412 0.0058888122 -0.008953009 0.0062079113 0.009487698 -0.003225063 0.0014316263 -0.0053397026 0.00077301793 0.002342905 0.008194901 0.00051508954 0.0025454243 0.0009207726 0.008574523 -0.0061830264 -0.006404112 -0.0042216033 -0.002071022 0.0051387665 -0.007809726 -0.0029903871 -0.008253453 0.005339557 -0.0029492208 -0.009308599 0.0039240913 0.009225487 -0.002437724 -0.0057585607 0.003221274 -0.00068863813 -0.010287774 0.0091157155 -0.0075005274 -0.0056209853 -0.0028845721 -0.0059579858 0.0016324209 0.009267908 0.0045222226 0.008478951 -0.00036213498 0.00043476123 -0.0029893802 -0.008794183 0.0035010015 0.0022976317 -0.009343757 -0.0056029144 -0.009600246 -0.005807326 0.0039267456 0.008827293 0.0041719214 0.0024787015 0.0074568116 -0.00084814307 -0.0013873607 -0.008706392 -0.00013688 -0.0029439495 1.726187e-05 0.0073339758 -0.0069198767 -0.0034759303 -0.0072352914 -0.003073317 -0.0036724405 0.0026017101 0.0036931108 -0.0053534177 -0.004215138 0.0012311068 0.005426768 0.0052254647 -0.0032406694 -0.0043955194 -0.006003983 -0.00078963785 0.0015438095 0.0023582748 0.0070935627 -0.002965751 4.8332437e-05 -0.005168867 -0.0007206591 -0.007581124 -0.0004507721 0.0014238432 -0.008677927 0.008893137 -0.008520984 -0.009424682 -0.008135971 0.006780085 0.005839112 0.009174447
! 0.002309082 0.0010377938 -0.0026569737 0.00941653 0.0028402878 0.00361893 -0.0008526134 0.0018762944 0.006365131 -0.0008482618 0.0030814756 -0.0011879922 0.0053829984 0.0036906637 0.0026784814 -0.0055709085 -0.004635414 0.003853173 -0.0062919585 -0.00072364655 -0.00027212227 0.003476347 -0.0083510745 0.00877399 -0.0017026004 -0.005383035 0.0038268429 -0.0021487004 -0.00827963 -0.0044271084 3.3099615e-05 -0.009062143 0.0009244812 0.0023012585 -0.0031712255 0.0031954893 0.0025300845 0.009448758 0.0011839068 0.0016005333 0.0028233142 -0.0024911892 -0.0088421805 0.008195733 -0.0018642496 -0.009833796 -0.006974446 -0.0037168826 0.0038854377 0.005212542 0.0062340405 -0.0075032036 0.00075145933 -0.0026931267 -0.0055011096 0.007130524 0.0040684585 -0.0031387971 -0.0090028215 -0.0047961203 -0.0008654302 0.007973741 0.006005226 -0.0088518085 -0.009969134 0.0072477954 -0.0021841745 -0.0033182537 0.005293111 -0.0054228506 0.0049382495 -2.2775634e-05 -0.006621206 -0.0005226148 0.006598136 0.009590162 0.0023823841 0.0048669013 -0.00534663 -0.000819103 -0.0057641603 0.0007896584 -0.0022118364 -0.0029026328 -0.0073462855 0.009562304 0.0030966222 -0.0017851825 -0.0037782085 0.007820946 -0.0060010795 0.0032406081 0.00069362094 0.008463065 0.00738882 -0.0026310587 0.0029659877 -0.0022291304 -0.009204146 -0.0028778166
은 0.00065280794 0.0068749986 0.010129033 0.009368316 -0.007902121 0.005605632 -0.005396925 0.0005410227 -1.7702636e-05 0.0063886954 0.0038475988 0.003943962 0.009694101 0.00044416494 -0.0057589733 -0.006729758 0.00667821 -0.0060209646 -0.00313733 0.0032903522 -0.0020406095 -0.006193593 -0.0019050719 0.0009357896 0.0017990003 0.006184835 -0.0059791855 0.0028005892 0.006992309 0.002408786 0.006079265 -0.00470781 0.006665992 -0.0077003203 0.0034368173 -0.008217065 -0.002491033 -0.01006086 -0.0021223822 -0.0061072144 -0.0040857764 0.00037934267 0.0027638068 -0.0011830735 -0.008145539 -0.0060422188 0.0004524144 -0.003919712 -0.009413295 -0.0005955247 0.0071319034 0.0051259855 -0.010141178 0.0028537747 -0.0061794324 -0.009068272 0.00055622717 -0.0003626264 -0.007877944 -0.005853759 -0.0027976052 0.007196053 -0.007708261 0.0070352927 -0.001171336 0.001424402 0.009877892 0.005394838 -0.0044542975 0.004027533 0.0032268544 0.0065883873 0.00071021786 -0.0046759937 0.001788406 -0.004964665 0.0016499342 0.004667488 0.004333076 0.00946992 -0.008321955 -0.0057464074 0.005932041 0.0027509811 -0.006895635 0.0006559403 0.0029182287 -0.0016906596 -0.004204759 0.005426302 0.010516154 -0.0071587474 -0.00022722945 -0.00233027 -0.0053189294 -0.0007231337 -0.0046655843 0.008315685 -0.0055625187 0.0035543127
만 -0.0006383377 0.004419361 0.00223341 0.010138895 0.00070490164 -0.0060774013 -0.0010109905 0.0033908845 -0.0035012977 -0.0080775125 -0.0060307435 -0.0072566825 0.00652903 0.0038614476 0.008244105 0.006214392 -0.006058905 0.0023612375 0.008272214 0.0010184171 0.0034561094 0.005744876 -0.00854245 0.008861008 0.006676115 0.008534239 -0.008700741 0.005852161 0.0062507656 -0.001104646 -0.0060625994 0.0055794525 -0.0065156966 -0.005359742 0.0031823313 0.008864907 0.008637638 -0.005255542 -0.009432237 0.008937231 0.0062943385 -0.004373745 -0.008501049 -0.0045653027 -0.0038104241 -0.003604386 0.00045154145 -0.00028065668 -0.0029437053 -0.006031804 0.0097409 -0.0053564426 -0.0072062635 0.0074680503 0.0022534986 0.0089203995 -0.0042912485 -0.0070258267 0.00013716644 -0.00087602873 -0.009663202 -0.0015583099 0.0027484286 0.005979402 0.006194371 0.003481249 -0.0043559102 -0.0013819321 -0.004574866 0.0061908397 -0.0065726987 0.0024924234 -0.0009153486 -0.0059315553 -0.0070190593 0.0063316277 -0.008185899 -0.0009239291 0.0021983047 0.0077866153 -0.0076891347 0.0029399616 0.009311211 -0.0058824923 -0.00384555 0.0052091 0.005488886 0.0021325396 0.008563099 0.0010645896 0.0024867686 -0.0013713749 -0.008381189 0.0034451517 0.0027963398 -0.00806208 -0.00047047768 -0.00032568307 0.00032438798 0.008503354
일기 -0.003125096 -0.0059602223 0.0076488624 -0.007043354 -0.008951479 -0.002411274 -0.008158282 0.0015182607 0.0015875853 -0.0027880364 -0.0068758368 -0.0010112044 -0.0009911129 0.0036720552 0.008317426 0.0055573373 0.00870037 -0.009443206 0.009612756 -0.0029537382 0.008969853 0.0023556417 0.0038784735 -0.00999786 -0.009749139 0.009128415 -0.0032503805 0.0026333772 0.0062404517 -0.00029327415 0.010338481 -0.0009076946 -0.009411096 -0.0071055987 -0.0011297022 -0.008209515 0.007442245 0.0029779028 -0.009067083 0.008194159 0.008901336 0.005577138 0.007132723 -0.00942822 0.00061341224 -0.00931766 -0.003938191 0.00031846957 -0.00010623851 0.0016829096 0.0037203205 0.001687611 0.0054302006 0.007567524 -0.006318918 0.008204402 0.006273343 0.009967821 0.003971531 -0.0031107657 -0.0039393157 -0.000562615 -0.0017361408 0.009529012 0.00066368503 0.00411897 0.0035591216 -0.008603406 0.006172125 0.008792618 -0.0020752952 0.0027430628 -0.005903102 -0.006294405 0.008698745 -0.0027398916 0.006823023 0.0015343099 -0.0024363636 0.0031057175 -0.0044852966 -0.0020835106 0.0010849963 0.0057265772 -0.0015941475 0.00040252646 -0.0079342695 0.00999189 -0.008125949 0.0073535764 0.004409905 -0.006579779 -0.005511541 -0.007849462 -0.0044447803 0.0075524887 0.010211212 0.0017367025 0.001109216 0.00951767
암 -0.0053357473 -0.0010541868 0.0033307227 -0.006347306 -0.009440271 -0.009839872 0.009286472 0.0065709706 -0.0052273013 -0.008558725 0.00075568876 0.0021508376 -0.0011055634 0.001404437 -0.004275212 0.0046366947 0.0014792605 0.008431095 -0.010331106 -0.0059610712 -0.00883672 -0.00031918057 -0.007721157 0.0047681564 -0.006686432 -0.0060104723 0.004837302 -0.008420322 0.0011850683 -0.007113709 0.010367872 0.00875907 0.0020376896 0.0055884914 0.004519054 -0.005271885 0.009946831 -0.010382125 0.007708105 0.002115945 -0.003098167 -0.0040816483 0.009127623 -0.0053154533 0.00851746 -0.006280156 0.00805789 -0.00055788684 0.008049757 -0.0030808507 0.006409988 0.008253208 0.0023365398 0.0012122021 0.004721017 0.00817024 0.008964197 0.008484698 0.0063064354 0.008293766 0.00850014 -1.1767041e-05 -0.0011840862 0.0011530955 -0.0004856468 0.00085986627 -0.008387723 -0.009285281 -0.003097198 0.009357204 -0.0039861347 -0.0066352836 0.0053239516 0.0008450479 0.0023467115 0.0039522145 0.0036562686 0.005524606 0.00060204783 0.0009459627 0.0087483665 0.0025509216 -0.0052351626 0.007466868 0.0049710195 0.0026962438 -0.0030864824 0.0038800247 0.0068861055 0.0074562375 0.0014456973 -0.008228558 0.00021807093 0.00054114504 0.0046972907 -0.009041664 0.010190804 -0.0074629798 0.006117265 -0.009587659
박주연 0.009459219 0.007410982 0.0012980925 -0.0033263245 -0.0003454562 -3.8085644e-05 -0.006122295 0.0066415113 0.00220561 0.0035923526 -0.0075810035 0.0081405165 0.000607963 -0.0003736058 -0.008997081 0.0039044486 0.006798516 0.006928776 -0.0065678163 -0.008356511 -0.005354965 -0.0006033415 -0.008154557 -0.008269664 -0.0021110151 0.0011945751 -0.0098549845 -0.003964007 0.00037855905 0.006959893 0.0020260853 -0.00058337854 -0.007249756 -0.00686754 -0.0008558908 0.008079477 0.005462787 -0.0019746227 0.00092022424 -0.010078667 -0.0014068859 -0.004995015 0.005916235 -0.0022816954 -0.004656566 -0.009704912 -0.0014888112 -0.007090473 -0.0016060375 -0.003907244 -0.0020956607 -0.003804225 -0.00817772 -0.0012680506 0.0014425636 -0.00393489 -0.0075566536 -0.003714517 -0.009457851 -0.00063438585 0.005679796 -0.0028873363 0.0030826586 0.0046595996 0.00810356 0.005816903 0.009704635 -0.009332023 -0.008412058 -0.0066651604 -0.0077127283 -0.007800345 -0.007581729 -0.0030940636 0.0015446922 -0.0027116637 -0.008781956 0.0047635157 0.0004275883 0.00475452 0.006972198 0.0074922186 -0.0011652708 0.0043274695 -0.005316734 0.0018431314 0.004608616 0.010404523 -0.002780688 0.002890369 -0.0054758666 -0.0020871533 0.0081487745 -0.0038479073 -0.0005173413 -0.008945931 -0.009247333 0.008549507 -0.005499099 0.0049859085
하고 -0.007337633 -0.0023529355 -0.008024952 0.007683573 0.0062667704 0.004677045 0.008578958 0.0004986422 -0.009722491 0.009039865 -0.005404219 0.0073644198 0.005666311 -0.0010745238 -0.0076861507 -0.0016715637 0.0063970974 -0.0074405954 0.0014511297 -0.008750915 0.009075405 -0.0029051541 0.009805752 -0.0058515295 -0.009926717 -0.008448956 -0.004438093 0.004541376 -0.00057223876 0.0094572045 0.003586622 0.00388332 0.0032834087 0.008036013 -0.0025831484 0.007985694 -0.009715943 0.0022616535 -0.0009546286 -0.00019413132 0.0069338134 -0.0032849435 -0.002498391 0.00014450036 -0.00022596371 -0.0038271188 0.005855027 -0.006533158 0.008022605 -1.47512965e-05 0.0029855284 0.0027995799 -0.00032605501 0.0017223371 -0.0034237956 0.004929164 0.00050647074 -0.0034313195 -0.009383121 -0.009825537 0.00025130212 -0.0056921216 -0.0012844941 -0.004652366 -0.0091054775 0.0014157802 0.006166316 -0.0017741357 -0.0076863347 0.003671649 -0.0005466961 -0.0051711383 -0.0007192385 -0.00079274416 -0.0028883005 -0.009789347 0.00777582 0.0034955428 -0.0030518367 0.007371763 0.00011358375 0.0068791653 -0.002054016 0.008432452 -0.00017446245 -0.006368214 -0.004510307 0.010195988 0.001063954 0.0012206909 0.008957179 -0.006090607 -0.0019437494 -0.008127475 -0.006099614 -0.008107542 0.0044337264 0.0022305276 0.0059971455 0.0025915718
들 0.0014537481 0.0059782467 -0.0021525943 0.0033003644 0.008633747 -0.00031876596 0.0066931923 -0.0054977904 0.0062573655 0.004655576 0.004439211 -0.010554868 -0.00030235868 0.0031755522 -0.0056615057 -0.007190262 0.006372539 -0.007437107 -0.0055445796 0.0073100715 -0.006804696 0.008614916 0.0011134853 0.004393498 -0.0033180902 -0.0053389687 -0.009484192 -0.00075751834 -0.0055801324 -0.002942107 0.008622567 -0.007415698 -0.0060040187 -0.005453962 -0.006823349 -0.00801202 -0.0009724271 0.008889677 0.007639268 -0.0060801688 -0.008349446 -0.0027859418 -0.009295421 -0.004921349 -0.005838527 0.0030069905 -0.008343061 0.0013784072 0.0024612017 0.0055252886 -0.0016514027 -0.010611753 0.0051016435 -0.006220435 0.004487991 0.0020691804 0.009113022 0.0015818317 -0.0026407992 0.006798348 -0.0074056713 -0.00830158 0.0037116995 -0.003106311 -0.004745663 -0.0017070128 -0.009538828 0.000685131 -0.0019811853 -0.002549672 0.0020329421 0.005091307 0.0068186265 -0.008080973 -0.004746726 -0.0086354185 -0.008788804 -0.003931687 -0.0019396 -0.008108745 -0.0058711455 -0.002413039 0.005841029 0.0028778415 0.0080335755 -0.008568015 -0.00453451 -0.00019106461 0.0093772635 0.0010599522 0.0023123578 0.0016595797 0.0027339216 -0.00925198 0.0042727743 0.0059858654 0.00577507 0.003620362 -0.0079395 -0.0043415967
때 0.008050483 -0.00044314383 -0.009429429 0.0048102206 -0.0059107253 0.00604421 0.0054884804 -0.0041356124 0.0025085963 0.0052979905 -0.003991785 -0.001977013 0.009052515 0.00922854 -0.009316977 0.0074372403 0.009850236 -0.0031732912 0.0022085558 -0.0033521685 0.008871697 -0.00026180578 0.005890687 0.009114259 0.003848463 -0.006961781 -0.0021584078 0.00091942673 0.0016862468 0.003107766 0.009781876 0.004455666 0.0102088805 -0.008774716 -0.005769268 0.0023209706 0.003802986 -0.0014671385 -0.0071617607 -0.0036531691 -0.008668073 0.008997934 0.003661995 -0.0079144705 0.0033788374 0.003914906 -0.0059448616 -0.005892347 0.0012049935 0.009160159 -0.009351128 -0.0004645995 -0.00695793 -0.001071823 0.0028360067 -0.0049027842 -0.0024757383 0.00064191513 -0.006903337 0.007514659 0.0042865095 -0.0085557075 -0.0021732103 0.002817285 -0.008830077 -0.0069347997 -0.008325216 -0.005212108 0.008346534 0.007541735 0.0027219667 -0.008347891 0.0061008064 0.004530133 0.0002593586 -0.008656285 -0.0017043452 -8.695329e-05 -0.008106178 0.0024364807 0.0001663036 -0.007357835 -0.008629369 0.006845346 -0.008615326 -0.0056967884 0.005588062 -2.5831778e-06 -0.0027923763 -0.0050568334 -0.00094883394 0.0055479626 -0.0059025213 -0.004895758 -0.0043932376 -0.004289675 -0.007637794 -0.010167875 0.0076549253 0.007982405
할 -0.0047851717 -0.009082359 -0.001865125 -0.0035750605 0.009230241 0.0024026076 -0.0056400276 -0.002375927 -0.010063195 0.0018603242 -0.004341445 -0.0031608872 0.005164719 0.0075841793 0.0045926436 -0.0071268147 0.006923742 -0.009886839 -0.007166424 -0.0086437 -0.0018918196 0.0005097578 -0.0035576215 0.001711686 0.008948337 0.006883738 -0.001431275 0.008928729 0.001284588 -0.001748826 -0.006064577 0.0065513374 -0.008732267 -0.0020875433 0.0076527074 -0.0020690092 0.0016307912 -0.007949223 0.004608779 0.0068947747 -0.009420325 -0.0036773544 0.008022463 0.0032582793 7.676331e-05 0.0001827439 -0.010372476 0.010086611 -0.002003491 -0.0047703777 0.0029167822 0.0005102056 -0.0059374883 0.0057716398 -0.002840317 -0.006101548 0.0075596087 0.0064627454 0.008414979 0.0013278215 0.00042375203 -0.007963379 0.0045714644 0.008877766 -0.0011429936 -0.0017521788 -0.003573395 -0.00012254812 -0.008271376 0.005825462 0.0012816566 0.009575177 -0.006120998 -0.005308872 -0.0060505057 -0.0070811156 0.002806348 0.004860432 0.00095560285 0.003456293 -0.009785769 -0.0012526633 -0.007980408 0.003772014 -0.0027902245 0.008868272 -0.0034035323 0.007232845 0.00454272 0.0014644294 0.0003705165 0.008255397 0.002258761 0.008334909 0.0039312206 0.005954642 0.00535068 -0.008137473 -0.005484643 0.001026358
안 -0.0003464202 0.002461765 0.0010339622 0.00770343 -0.0042175543 -0.00038367335 0.007408036 0.0037631746 0.0037251266 0.004213536 -0.001718021 -0.00899612 0.0030695503 -0.00888283 -0.002401709 -0.009705407 -0.00014818087 -0.008478018 0.007286679 -0.005717159 0.010409012 -0.009162936 -0.003918217 0.001658949 -0.0031251137 0.0014719954 -0.004269552 -0.0012561483 -0.00614272 -0.009784034 0.007101699 0.00048871606 0.007150853 -0.007818117 0.0034458907 -0.009022751 0.007365044 0.004890976 -0.0066506313 0.0073249517 -0.005775815 -0.00917914 0.001695668 0.0035741366 -0.0080199065 -0.009148381 0.008430254 0.0016684615 0.0010761936 0.0028542925 -0.003036982 0.00077584846 0.0018777547 0.009799427 -0.0060534067 0.0024713078 0.006710863 -0.006638522 -0.0100062275 0.009299007 0.0066202753 -0.003918463 0.0055489964 0.0002808223 -0.005756031 -0.0010185692 -0.004742264 0.007028525 0.0011494689 -0.007800972 -0.00064221304 -0.0023034879 0.007220454 -0.0013742105 0.008218858 0.0024125075 -0.0037197561 0.008115607 0.00230947 -0.003998086 -0.00637676 -0.0033927641 -0.005748753 0.0045903693 -0.00958426 -0.0060422854 0.0036540003 0.0008708871 0.006731189 -0.003407248 0.00086929975 0.0027409093 0.0051598726 0.0017972413 0.010669063 0.0043834317 -0.0068219006 -0.0022045325 -0.008107783 -0.0056598987
저 -0.00265224 -0.009629185 0.009366074 0.0021157828 -0.000985089 -0.0061557856 -0.008500888 -0.0088995965 0.008706312 -0.0026996883 0.00410871 -0.0049923714 0.010228087 0.0037460153 0.0011105849 -0.004456932 0.0012521821 -0.0031102083 0.0072752167 0.0039307517 0.0011246044 0.0034648005 0.003918457 -0.0071740653 0.008903289 0.0017484158 -0.0061751623 0.008343839 -0.0014579074 0.008290452 -0.0011512337 0.007269515 0.003042088 -0.004445636 -0.0038550114 0.010006087 0.0013609051 -0.006572578 -5.624077e-07 -0.002540053 0.0016160965 -0.008263533 0.0071216086 0.0016137646 0.00800836 0.0042578313 -0.00478204 0.0039221933 -0.00066170515 -0.009856986 0.008429248 0.0089359 0.009710833 -0.0037972725 -0.008763495 0.0049944925 -0.007484289 0.008490521 0.0020698651 0.0059468644 0.006184122 0.00043326474 -0.0022619294 0.00043754416 0.009478774 -0.006900164 -0.0013218859 -0.001980254 0.004296597 0.006826879 -0.0041527404 0.0039507505 -0.003912928 0.0032245156 0.008370387 0.0039750487 -0.0044274405 -0.0034105477 0.007380103 0.009618591 0.00539647 -0.0034843364 -0.0022817494 -0.0056266845 -0.0046790247 0.0033228723 -0.0061551044 -0.0060981023 0.008730748 0.009918769 0.008652497 0.001778652 -0.008920482 -0.007441019 0.0022261443 -0.0090272715 -0.0071416115 0.0014968959 -0.0026136762 -0.009361243
좀 0.0058592996 -0.008639372 -0.0075502004 -0.0015138099 0.0019239796 -0.0018994013 -0.0049794917 0.008131021 0.008483009 -0.0075749173 0.009263295 0.0067219273 -0.0074601206 -0.0017664324 0.0044564055 0.0068078004 -0.0032444685 -0.0075193616 0.0043840525 -0.010213196 -0.005558567 -0.0013777744 0.005769025 -0.0062038926 0.004413969 -0.00029875233 0.0019401872 0.006180707 0.0009387919 0.008109076 0.00025141105 -0.007968293 0.009691009 -0.004955822 0.0043475 -0.0028741532 -0.0074103638 -0.00724066 0.0041762847 -0.0015722418 0.0016317734 -0.009689535 -0.005233773 -0.0058360146 0.008695122 -0.009080501 0.004381812 -0.00084745773 0.00036595808 0.009203296 -0.0033855925 -0.0081852265 0.0007259856 0.0077357762 0.008823371 -0.0034072618 0.0031162973 0.0048445715 -0.006446072 0.007209016 -0.0065671387 0.0022355148 0.004464096 0.0038857253 -0.0055916035 0.0030318673 0.007483087 0.009399281 -0.010477714 0.0061209346 0.0046137227 -0.0010974059 0.009765535 -0.004394299 -0.0013218536 -0.0066736327 -0.0036851338 -1.9636725e-05 -0.0038656031 -0.005491327 0.005916118 -0.005668973 -0.00695442 0.0090030655 0.009407425 0.003920741 0.00031689307 0.001562066 -0.00031898636 0.0071526347 -0.0054534 0.000903625 0.004256537 -0.0019691205 0.0016805626 0.004232567 0.010239063 0.0012857852 0.009927061 -0.005980074
아 0.004455846 -0.0034843455 -0.0042441073 0.0014043248 -0.0039637224 -0.0060391417 0.0032173176 0.009217652 -0.006655675 -0.009353604 -0.003558477 0.007190447 -0.00952672 0.009764505 -0.0002872597 0.0022202053 -0.0017258428 -0.005985919 0.003027051 0.005860248 -0.007031178 -0.0012199121 0.0015921333 0.0040524285 0.0070211417 -0.0035773024 0.0070858975 -0.005845202 -0.0023579702 0.009206999 0.005652824 -0.008515313 -0.0014873878 -0.009112709 -0.0018402747 0.0060118674 -0.007454576 0.005098424 0.0058808755 -0.004131242 -0.009728058 -0.0028710759 -0.002562727 0.0038860745 0.008897554 0.0018729136 -0.0023284527 0.0029490972 -0.0068346784 -0.0011370342 -0.0013277179 0.009060321 -0.005810151 -0.0070657777 0.002074627 0.0029163728 -0.0071003484 -0.0060137855 -0.0016889757 -0.0031517665 -0.009104987 -0.003903822 -0.0030271788 0.006279621 0.00053234445 0.0016215666 0.00046226842 -0.0031730374 0.0027702583 0.00096726505 0.0058404314 -0.0006255457 -0.008636517 0.00068437593 0.010166714 -0.004999758 -0.0050801607 -0.0028218378 0.008363474 -0.00080318557 0.009088987 -0.008564538 0.008843101 -0.009182121 0.009187301 0.0016317666 0.0026682736 -0.005462948 0.008879943 0.0062103504 -0.0051576677 -0.009343836 0.006906931 -0.0054282565 -0.008944575 0.002967644 -0.0045530275 -0.0076010935 0.010008341 -0.0016869162
웹툰 -0.0018408283 -0.0039400025 -0.004432651 -0.0045053684 -0.005444837 -0.005679511 -0.007878322 0.01029372 0.0062412946 -0.003718768 0.0022358203 -0.008072024 0.007603709 0.00831797 0.0007255966 -0.0070595583 -0.0030606594 0.0044375276 -0.0031040716 0.0027638609 0.009747385 0.004205672 -0.004918151 0.005282943 -0.0029576235 -0.0064235576 0.006855628 -0.009549874 -0.0012376407 -0.0012655015 -0.008125844 -0.00087107625 0.0059084594 -0.0053376504 -0.0070760427 0.0066268505 -0.0035494554 -0.008174286 0.00015671278 -0.00046268525 0.0076563363 0.00030005985 0.007957184 -0.009694152 0.0042102314 0.0059450734 0.00071312627 -0.0027861875 0.0011422818 -0.0007813057 -0.007924631 -0.0073559233 0.0012805135 -0.0020318 0.009425938 -0.0008028086 0.0062545724 0.0020244368 0.007487056 -0.0091095455 0.0023363729 -0.0014599528 0.0020156438 -0.00055743713 -0.0070272693 0.009183231 -0.002579884 0.00228603 -0.006863998 0.003957723 0.0098077785 -0.0010337561 0.006826712 -0.00021752446 0.008192983 0.009948079 -0.0002721462 -0.001904784 -0.009855658 0.009938042 -0.0028117832 0.0020426526 -0.0021412906 0.008861621 0.008211333 0.0013970366 0.0029610912 0.006758677 0.0025302456 0.006574552 0.00047302028 -0.002137726 0.005226493 -0.0034117296 -0.0020544732 0.009125256 -0.008911154 -0.0038812032 -0.002643447 0.0056245713
수 0.007806507 -0.006248629 0.0056840284 -0.0001361412 -0.009042585 -0.0025834849 -0.0014952208 -0.0038522016 -0.00094180077 -0.0052707475 0.0058020963 0.009019312 -0.001471058 0.0035166172 -0.000703305 -0.0008165049 -0.0069917333 0.0013001028 0.0036843463 0.0065788566 0.00678179 0.0035632562 0.0047599566 -0.007608766 -0.0014514202 -0.005744826 0.0067006806 0.007709299 -0.004525106 0.0011546832 0.0053597842 0.0018921698 0.00074079545 -0.0068703545 0.009784565 -0.007012507 -0.00594721 -0.006034356 -0.006459484 -0.003920082 -0.009404105 0.0009368342 -0.0037009101 -0.0023308028 0.0059517436 0.0035143488 0.0015737041 -0.0013452565 0.010063018 0.00037508347 0.0050831665 0.008777576 -0.009781303 -0.009140621 0.009745164 0.0029231186 -0.0017642783 0.004627703 -0.004738638 -0.0064089666 -0.008352361 0.007222297 -0.002393502 -0.007783988 -0.006159908 0.006361789 -0.0024246958 -0.0059122145 -0.001864772 -0.0013074385 -0.0031620173 -0.0020753704 0.004162309 0.0013840161 -0.003300529 0.0028026947 0.0053299074 -0.009233855 -0.00785609 0.0062546274 -0.0090809995 0.00028714826 -0.009315795 0.008892449 -0.0043950933 -0.006638778 -0.001456606 -0.00087632705 0.0078076227 0.009243813 -9.598848e-05 0.0027746211 0.004615298 0.00010752176 -0.0054698307 -0.0002933095 0.0023992523 0.008074281 -0.0034938047 -0.009974164
이다 0.0051425183 0.01002158 -0.006896629 -0.00021284705 -0.004978033 0.0061025955 0.009874768 0.0007229724 0.00500291 0.0063155843 0.004079574 -0.00855983 0.003204688 -0.0015008056 -0.0020603721 0.0053350287 -0.0013193121 0.009354206 -0.0007747359 -0.0002120587 -0.002193564 -0.008404064 -0.009525553 0.004884304 -0.006930655 0.0030034247 0.0024375096 -0.0071889553 -0.0032140266 -0.005680035 -0.008379747 -4.2425672e-05 0.010070242 -0.006643641 -0.0045468574 0.008909376 0.009368717 0.009334508 -0.010177543 0.0047776066 -0.006733686 0.006558759 0.006163468 -0.0032915983 0.0069877333 -0.008008073 0.0041681165 0.0045536817 0.006025551 0.0059635756 -0.002490812 0.003416388 -0.0063147037 -0.006564422 0.002716931 -0.0093033705 -0.00014755061 0.00097367185 0.007478671 -0.006831891 -0.0026025756 -0.004010149 -0.0055315434 -0.0008636591 0.004216278 -0.0047824485 -0.0015033465 0.008773344 -0.0018507133 -0.003423277 0.0071900375 0.0013910477 5.021975e-05 0.009250578 0.008294425 0.0036341862 0.0035745925 -0.0026762395 0.007729792 0.0053123836 -0.005743202 -0.006431901 -0.0007445315 -0.007247558 0.0030824132 -0.009256087 -0.0015494458 0.0039257505 0.0035173683 0.0032706824 -0.008796261 0.0036251121 0.005463679 0.0035542124 0.008444638 0.0022192646 0.006532802 0.008597888 -0.0008281362 -0.0008264545
와 0.0018655295 -0.007408178 0.005751668 -0.0049052243 -0.0032509777 -0.0023692509 0.008466516 0.0032199703 -0.0010905227 -0.0030809278 -0.0024707532 -0.001720884 -0.0049124006 -0.004083966 0.000229191 0.0045290487 0.0019762642 0.0067400374 0.0006324551 -0.0037195284 -0.0071761757 0.005919545 0.0069863014 -0.006282271 0.004605926 0.009548791 -0.0067134765 -0.0031221888 -0.009338378 0.0031847458 -0.0031730216 0.0021964156 0.009685352 -0.008581338 -0.009393427 0.0022484441 -0.008108707 -0.009795787 -0.009728565 -0.000739592 -0.001314729 0.00045281334 -0.0013559209 0.009080698 0.008917278 -0.0065327496 0.008350386 -0.008975924 -0.0012975463 0.0027239763 0.0002545857 -0.0043066535 0.00038246124 0.001029264 -0.009683527 -0.0046587936 -0.007562491 0.0037526246 -0.0016149514 -0.007309803 0.0055122627 0.00024281415 0.0024879712 0.0051787696 -0.0046754386 0.007940249 -0.007886655 -0.0031870434 -0.007906332 0.0013672846 -0.0075428584 0.009264351 0.0059186965 -0.007492033 0.006480406 0.0068458514 -0.0073594586 0.0043784175 -0.007983031 0.009459566 0.004447824 -0.0004531951 -0.009254852 -0.00029776891 -0.0005096629 0.00081086205 0.008750159 -0.0022670089 -0.008181846 -0.008629682 -0.0006537426 0.0015382366 2.9130166e-05 -0.0020263933 0.009026977 0.00055403716 0.0067073363 0.0035812554 -0.0068962076 -0.0022386461
로 -0.008275978 -0.006727432 -0.0030662147 0.0067623085 -0.0007723972 0.008348477 -0.0019028644 -0.0044452418 0.0037548684 0.002179384 -0.00063276873 -0.002814677 -0.0060627195 0.004205574 -0.0075908033 -0.009375959 -0.009113227 0.008114765 0.004120033 0.006713788 0.01027379 -0.0072391555 0.004391128 0.0027748025 0.0060626394 -0.0033686494 0.009146453 -0.006099305 0.0068565053 0.006988854 9.044495e-05 0.0050325887 0.006908947 0.0013625454 0.0073983497 0.002739256 -0.0016002175 0.006886766 0.0044325273 -0.0039064614 0.0015410198 -0.00031414954 0.0050904797 -0.005273331 -0.004019211 -0.0011641697 0.0033415612 -0.0067533925 0.008177526 -0.0029167566 0.006068375 0.002496626 0.0070576887 -0.0044703856 -0.0035366581 0.0030799482 -0.0025279312 0.0058912504 -0.0066285604 0.0028656742 -0.000797151 -0.00061704445 0.0025006458 -0.0023998749 -0.004814677 -0.008438923 0.0026607898 0.005914698 -0.006576269 0.009687752 0.00398715 -0.005134824 -0.00095608184 0.0038129834 -0.006672371 0.0022932577 0.0056305313 0.0061582183 0.004925246 0.003467398 -0.003179109 -0.006256191 0.0077004717 -0.0068090507 -0.00198072 -0.0035203686 0.0066832136 -0.005944712 0.0036623387 0.0021820054 -0.003491131 -0.008133567 -0.008210063 0.0035710284 -0.009036583 0.006075117 -0.0027971284 -0.009740783 -0.004899469 0.0078036776
이렇게 -0.0021358603 0.0065711965 -0.009227195 -0.009067763 -0.005152545 0.00034218992 -0.0069252746 -0.008572812 -0.009312743 -0.00059619657 0.006956785 -0.0087767225 -0.0053682653 0.0016402622 0.0035003636 -0.009009257 0.008079157 -0.00871135 0.0045737405 0.008855881 0.0060401126 0.0061669303 0.008584377 0.003289532 -0.007458045 0.005773196 -0.008766591 -0.0058643683 0.005687526 -0.0077889813 -0.0054967683 -0.0034760786 0.0038264885 0.0050627943 0.0020915598 0.005680775 -0.002718084 0.0038682497 -0.0073965765 -0.0021645194 -0.00788963 -6.521708e-05 0.0048303087 0.004917502 -0.0045983545 0.0015135243 0.007504634 -0.0055460893 -0.0036508937 -0.00048561604 -0.00442695 0.008051796 0.0076880334 0.00912618 0.00903099 -0.008436299 -8.6855754e-05 -0.0075559733 -0.005244275 -0.00854386 0.003500051 0.000108838634 -0.007165339 0.0076298644 0.00055474596 0.00046541254 -0.0033925886 -0.002890986 -0.003269404 0.007963725 0.0020621675 -0.0049435603 0.0053062947 0.00085388863 -0.0025332803 0.0077860076 -0.003928014 0.007462397 -0.0046164873 -0.0074373893 -0.0049514025 -0.0041491813 -0.0011013983 -0.0010763813 0.0051157363 0.005344581 -0.0015693211 0.004308726 -0.0016473378 0.00085140986 -0.0008229097 -0.002329863 -0.0048506134 -0.0042103543 0.00078520586 0.0019982606 -0.0091460105 0.0056289453 -0.0014422233 -0.0029611047
정상 -0.005088665 -0.0041265516 -0.004773283 -0.00977364 -0.0006483456 -0.008189951 -0.004836156 -0.006719185 0.009586028 -0.0014561723 -0.008161469 0.0050941138 -0.008093779 -0.0016926724 0.0028082174 -0.007485415 -0.008549698 -0.006869058 0.007597905 0.008387374 0.0044201515 0.0022995688 0.0041756597 -0.004368626 0.009698475 0.00688306 0.0037365681 0.008802808 -0.008601376 0.0010196868 0.009325138 -0.00087522774 -0.006529226 -0.0025061532 -0.0027579563 -0.001875302 -0.0019680236 0.0066568423 -0.0005703461 0.003558038 -0.003965626 0.0077826646 -0.006624666 -0.0089605 -0.00409873 -0.0076174187 -0.005150995 0.00052699266 0.0025001946 0.0020787397 0.0052121547 -0.0020223677 0.0023983922 0.00037506764 0.0075959023 0.008293236 -0.0017611997 0.0012050861 -0.0067994916 -0.0046640644 -0.006938012 0.00010187937 -0.0050996295 -0.0041712 0.0010435139 0.0027974567 -0.008928128 0.002322275 0.0046979757 0.0047373585 -0.0029380461 0.0098176785 0.010072555 -0.0001776518 0.0010906118 -0.009126816 -0.004800525 -0.00023708772 0.0038208955 -1.1298862e-05 -0.009102701 0.005451802 -0.007933158 0.009334661 0.0055584824 -0.007009513 0.0030246924 0.0081730755 -0.005588169 -0.006231162 0.0098085 0.0018754094 0.009647507 -0.009766119 -0.0010701983 0.0072495746 -0.001290206 -0.0024100991 -0.006692044 -0.005662796
다 -0.007228186 0.009359626 -0.0015666967 -0.00815968 0.008202459 -0.0035787856 -0.0010621505 0.000342648 0.0025914402 -0.004916886 -0.00061634893 -0.0033614296 0.008773692 0.007057148 0.001349723 -0.006332254 0.0033165105 0.00074512523 -0.0063955295 -0.0064688716 -0.0028152633 0.0023108502 -0.007994123 -0.005147851 0.0077910423 -0.0034967486 0.007549439 0.00035493248 -0.0056945784 -0.0047427756 0.00024967003 0.0046420028 -0.0059647677 -0.0054922765 -0.006885234 0.0073130033 -0.0024808145 0.0033709933 -0.0017193409 -0.008140735 -0.0012279212 -3.7127524e-05 0.0036844357 -0.008523611 -0.006921785 -0.0068671876 0.0026777096 -0.0036289932 0.0011508893 0.004348839 0.0048245806 0.0018272877 -0.0027182158 0.00049383484 -0.0057219374 -0.006160954 0.009126182 -0.004008295 -0.010216772 0.0039844606 0.008419096 -7.218776e-05 0.0021369294 -0.004116443 -0.0047323518 -0.00851666 -0.0076275775 -0.008761318 -0.006475218 0.0089635225 0.009124468 -0.00154148 0.00048681142 0.007698445 0.0016078955 -0.005004955 0.0027992483 0.0018101637 -0.003998498 -0.0049323123 0.009294663 0.007435141 -0.008921426 -0.0048202625 0.0014540252 0.00078086037 -0.008286357 0.010025938 -0.0046872147 0.004811561 0.009912588 0.0014377367 0.0041969875 -0.0024619743 -0.009001293 0.0010394183 -0.0005867824 -0.010409346 0.0073046912 -0.0073921895
부터 0.004956062 -0.004442951 -0.009214472 -0.0091538485 0.0063860356 -0.0057405056 0.0054701073 -0.00066384324 0.009616297 0.006963564 0.00952785 0.007931096 -0.0079587 -0.009424329 -0.005695777 -0.0009857322 0.0050845677 0.0033881948 -0.0021864122 0.0045539737 -0.0030706318 -0.006986415 0.0048916223 -0.009988651 0.0007204602 -0.0050764815 0.007412999 -0.003918152 0.0025295408 -0.006291474 0.010058614 -0.005527559 0.0040002232 0.0031453972 0.008885624 -0.0050945715 -0.004279951 -0.0068223854 0.005786127 -0.005011567 0.004721176 -0.0012607446 0.0072138137 -0.005935125 0.00014094777 -0.00032744734 -0.008813491 0.008865931 -0.0019364262 0.0066383323 0.00040248345 0.0045048166 0.0022776169 0.008866318 -0.0086431615 0.008655616 0.0088769775 0.0010279915 0.0038323363 0.004053832 0.004008976 -0.0028950037 0.0027896173 0.00034590508 0.004323981 0.008655515 -0.0077720406 0.0005214099 -0.009330283 -0.001245573 -0.009213146 0.003409247 -0.0010883852 -0.0008917312 0.006700745 -0.007941075 0.0013345426 -0.0026645414 -0.0042128903 -0.007286839 -0.008417433 0.0080910865 -0.007890406 0.0055752923 -0.0040024533 -0.0013598847 0.0028984447 -0.008075374 -0.005304374 -0.0077398964 -0.009023001 -0.004557941 -0.003144779 0.0005960828 -0.00020188853 -0.00755957 -0.0035565635 -0.0031931207 -0.0060617696 -0.006395969
ㅋㅋ -0.0030410117 -0.007778542 -0.008099548 -0.007313875 0.003765729 -0.0083520785 -0.003561243 0.007989559 0.006969972 -0.006666383 0.006181548 -0.008417533 2.5861971e-05 0.006792314 -0.0028847381 0.008968538 -0.00026278768 0.0043686656 0.006861206 -0.0092553925 -0.005702735 -0.007344406 -0.0009027047 -0.007151776 -0.00018758557 -0.0079037575 0.00016265674 -0.00065041234 0.0062424373 -0.008771159 -0.0026397982 0.006032293 0.009648647 -0.0019814617 0.0006584791 -0.0054515824 0.0008212664 -0.0089109745 -0.008082232 0.00083651935 -0.0003078559 0.005071719 -0.009704961 0.0018542393 0.0017301597 -0.0054679806 -0.0004269333 0.0060933237 -0.00645402 0.0005732164 0.004188037 0.0010302191 0.0030400725 0.00813586 0.006331521 0.0037038852 0.008269551 -0.00782203 0.006745474 0.0040054275 -0.0061606932 -0.0041791694 0.0062861354 0.005387747 -0.010507792 0.0013751036 -0.0003298832 0.0014427182 0.0064609265 -0.0068413615 0.00951022 -0.00948777 0.00671674 0.009239673 -0.0034071442 -0.009031035 0.006298064 -0.008985947 -0.009013925 -0.0006644192 -0.007202613 0.008528838 0.0073335585 0.0017917502 0.007797681 0.009691062 0.0054258597 0.0051030633 0.0059606833 0.006645006 0.0054443954 0.0065726982 -0.007536017 0.009004563 0.009157501 0.010104342 -0.008714512 -0.004175065 -5.1236115e-05 0.0042107385
나 -0.008848373 0.0005322334 0.0061646556 0.009809781 -0.0026083107 0.0010290276 0.006584459 -0.00066564576 0.001685503 -0.009596428 -5.4526157e-05 0.0037744185 0.0045394963 -0.009589534 -0.0049898457 0.0027229148 0.0016246843 -0.0051670335 0.0057643983 0.0026577897 -0.0075178845 0.009851187 -0.007501958 -0.0032570818 0.009609387 0.0011632427 -0.0059669446 0.00078399526 -0.0043462333 -0.0066371597 -0.007308737 0.004907694 -0.008595296 0.0038274948 -0.0059427842 0.006151993 -0.004403055 -0.0064345514 0.0060063354 -0.009482877 0.0010904702 -0.0027014473 -0.0065959343 -0.0075544347 0.0068214405 -0.004778784 0.004031517 -0.00969908 0.0020091224 -0.0017486761 -0.0055382974 -0.0037211867 -0.008730238 -0.003641598 -0.0028777355 -0.0020163914 -0.0048427307 -0.009441204 0.0044794236 -0.0010054675 0.006154314 0.0032308223 0.008341415 -0.0038882764 -0.0095358975 0.0014924742 -0.00883568 0.0067078373 0.007741077 0.0009242327 0.007571156 0.00894545 0.004741626 0.0051889317 0.009571953 0.0014693798 -0.008222141 -0.008457266 -0.002271762 -0.0005931388 0.008491118 -0.0097598955 -0.003226828 0.009990425 -0.0015049734 -0.009294304 0.0023453645 -0.005299983 -0.0046765413 -0.0062686685 0.0007700728 0.007478943 0.004014458 0.008369386 0.0097508365 0.0051082494 -0.0057382085 0.0064419354 -0.009247254 -0.004936819
에서 0.0075045535 0.00823183 -0.005320812 -0.007793533 0.008197981 -0.004714576 -0.0037544537 0.008537622 0.0051075798 0.0036653145 -0.0016254834 0.00822826 0.008663774 0.007023974 0.009327203 -0.0060087736 0.0011840888 -0.002141515 0.0059848065 0.009246716 0.0054150927 0.0040526106 0.006838537 0.0057179313 -0.00021522015 -0.008135039 -0.00268493 0.008967462 -0.005335946 0.0012998877 0.005349882 -0.0068738684 0.008535316 0.0014957914 0.0023393312 0.009075309 0.0015524513 0.00020744049 -0.009814509 0.009357761 -0.009954949 0.00799441 0.0051767756 0.00021848392 -0.00787622 0.009216832 -0.00177503 0.0054830937 -0.0031256722 -0.0048626093 0.00045627667 -0.008806681 -0.006565096 -0.00949323 0.005219991 0.0006059438 -0.00047427765 0.0049698674 -0.0025302963 -0.0070761545 0.0025988482 -0.0058539207 0.00030375336 0.008926592 -0.0013735548 0.006516829 0.004910994 -0.0030654494 -0.005731238 0.009179636 0.0018189681 -0.0004352844 0.0011572653 -0.0050323806 0.003670771 -0.002662009 0.004338183 -0.0046930327 -0.0012763558 0.0040275534 -0.007749301 -0.0027982395 -0.009272896 0.0026317888 0.0018900668 0.002354438 0.001103973 0.0008165638 0.0028415397 -0.0008349544 0.006598728 -0.0026705316 -0.005293105 -0.00530193 -0.008692825 -0.0076069394 0.0025542297 0.003357059 -0.0054568243 -0.010005238
민아 -0.0064874133 0.0048804055 -0.009071211 0.00499227 0.0064562676 0.0057939417 -0.00754236 0.0035650462 -0.0056671216 0.008974503 -0.0045621195 -0.0027168074 0.0054263235 -0.00070966815 0.0051379097 -0.0043602507 0.004912308 -0.010218842 0.0060726837 -0.0016681626 -0.0054734657 -0.00021054693 -0.0010116706 -0.0007839784 -0.0018758111 -0.009221053 -0.008180679 -0.0070722685 -0.008678391 -0.0045485776 0.009567099 -0.0016723528 -0.007417906 -0.0059840456 0.003496262 -0.0020959545 -0.001550355 -0.0046476377 0.005683849 -0.0081508225 -0.007615711 0.007188954 -0.0069804895 0.0023511262 0.00042575377 0.009519422 0.004077874 0.0020484857 0.0028335603 0.0023988301 0.0024596786 -0.0033465852 0.0039424347 0.005963545 0.008837413 -0.00071205496 -0.0011556839 0.0063677155 -0.009175124 -0.00052997074 -0.0066995556 0.0048857187 -0.009048322 0.003039757 0.008563913 -0.0018619485 -0.008640391 -0.0077311597 0.0027675857 -0.005116028 0.006333188 -0.001065937 0.0081907865 -0.0006377761 -0.0060173348 -0.00539728 0.0008070117 -0.0048543145 0.0063202456 -0.003320567 -0.005928942 0.00071481697 -0.005132183 -0.007555382 -0.0054285005 -0.001920862 0.00060836127 0.0041092224 0.0073951986 0.0069624498 0.006321228 0.00032012325 -0.006042496 0.009102018 -0.0001494252 0.005193713 -0.0011935858 0.0054580867 0.0054322435 -0.0073219584
못 -0.0033413018 0.0001710902 0.002132646 -0.0092448555 0.0050290204 0.0025497577 0.00013782707 -0.002051523 -0.007853246 0.00738567 -0.009142174 -0.007975092 0.004566824 -0.008771368 -0.0030722085 -0.00236347 -0.0019295258 -0.007628212 0.0039947345 0.00024860018 0.0039502336 -0.0013059301 0.0074041304 -0.009654395 0.0054686954 -0.0050962386 0.001245622 -0.0071689812 -0.0028670006 -0.0063295523 -0.0028208098 0.009938384 0.003013401 0.0014335728 -0.0063137533 0.006609592 -0.008041134 -0.0031406842 -0.0069851293 -0.007148455 0.0022602042 -0.0037462541 0.0024123576 0.003950818 -0.0059956894 -0.002072005 -0.003206771 -0.009693509 -0.009725979 0.0013094278 0.00501586 -0.0006121933 -0.0050378037 0.0034046846 0.001386865 -0.009382041 0.0074374294 0.007614964 -0.00836227 -0.0005750158 0.005865844 -0.0027866343 -0.00045656672 -0.004759311 0.00556924 0.007332099 0.0023845779 -0.004235175 -0.0027895975 -0.0036818802 -0.010101797 0.008232394 -3.740399e-05 -0.0007256741 0.0072756116 -0.008815042 0.0064549414 -0.0077770115 -0.006035177 0.005149208 -0.0039016216 -0.0037052508 -0.00697796 -0.0026352617 -0.0030313423 -0.0041547823 0.009845951 0.010345394 0.00031422096 6.046336e-05 -0.004981085 0.008241489 -0.0049612164 0.006060617 0.010208346 0.006451887 -0.00046825854 0.005001808 0.00727565 -0.004195759
한 0.00034237897 0.0068349442 0.0058744713 -9.7744654e-05 0.0026875823 -0.0072104097 -0.009111285 -0.0036435898 -0.0058190087 0.00039960173 -0.004503244 -0.0009753207 0.007803639 0.009664552 0.00820699 0.002239324 -0.0027002762 0.0018359021 -0.0032359767 -0.009577651 0.007232801 -0.008887466 0.004078059 -0.0040454804 -0.005805564 -0.0010509229 -0.0070300065 0.008356905 -0.007406055 -0.00878123 0.006361232 0.004504499 0.005006038 0.0021860853 -0.0039528515 -0.004362766 0.0017961528 0.0075007845 -0.0060954937 -0.0029219044 0.0017525784 0.006160611 -0.0063119223 -0.0042928546 -0.0024117907 0.0012466372 0.0049806945 0.005608322 -0.008666503 0.0074552135 -0.0021020416 -0.003731044 -0.008989594 -0.0060156183 0.008995244 0.0033892258 -0.007873135 0.0027113566 -0.008023473 -0.008788555 0.0035857265 0.0021780913 0.0009649848 0.0082133375 0.0057714386 -0.004928871 0.0031243202 0.0030842288 0.0016593238 0.008586585 -0.007333702 -0.0019105441 0.0014963099 0.0061405213 -0.00024303557 0.008454276 -0.004364596 -0.009222591 -0.007726999 -0.003983026 0.009064717 -0.0056844866 -0.005281237 0.009511723 -0.007731688 0.001961715 0.005745324 -0.0067487215 0.0003968351 -0.0022981078 0.006158546 -0.0042219674 -0.0067308876 0.009988436 -0.0037128662 0.008307377 -0.007935937 0.006517666 -0.002980183 -0.007969418
것 -0.0017586115 -0.0022398818 -0.0017119185 -0.0010031578 -0.0063454737 -0.004175778 -0.0030137538 0.008855124 0.0056646713 -0.0009935134 -0.005252804 0.004784103 -0.008685446 0.0017456269 0.004116667 -0.0023514237 -0.0045686606 -0.008884088 -0.008499914 0.006589854 0.0038764765 -0.0005538697 0.010068187 -0.008603349 0.000461444 -0.0004015606 -0.008312837 -0.009496317 0.0070352107 -0.0036751342 -0.0075098444 0.008018257 -0.0060255835 -0.0033582586 0.0016812964 -0.0026759806 -0.00794972 -0.004703333 -0.009504992 0.00080724474 -0.0047886963 -0.0005307353 0.002643933 -0.0021532953 0.008976571 0.0069222655 -0.00082570076 -0.00064512435 0.0009790674 0.007038017 0.009408721 -0.0026039302 -0.0014132147 -0.002989811 0.00030165425 -0.0063827895 -0.0015956816 -0.008781405 -0.00017135406 0.0016825008 0.003606068 -0.0028125308 0.005830601 -0.0075101443 0.009316335 0.00084343884 0.0026192016 0.004957373 -0.00017343176 0.0030012443 0.0014646971 -0.009390084 -0.002638451 -0.0026240072 -0.009032495 0.0039755637 0.004953392 -0.002146728 0.006947987 -0.0012703878 -0.0009173671 0.005540089 -0.008954086 -0.006230946 0.0069948966 -0.006671092 0.008857134 0.0059350487 -0.0075316997 0.008659981 0.0070005497 -0.006596303 -0.008465136 -0.008595291 0.0045757806 0.006772743 -0.0017433205 0.00080810266 -0.008148913 -0.0052327127
눈물 0.004397481 -0.008922544 -0.009170939 0.0010951934 -0.008544391 -0.0075717084 0.0049674623 0.009155863 -0.007621601 0.007918476 0.009092241 0.0042961235 -0.004344312 0.0096189715 -0.0075065442 -0.0042005824 0.0020274515 -0.008063904 -0.009974966 0.0024667422 0.008436344 -0.0052063866 -0.0040209033 0.0037233154 0.0003430133 -0.0085648 0.0061978735 -0.0033371644 0.0033554668 0.0033749207 0.00918051 0.008831786 0.0076492964 -0.0081661055 0.0011688583 -0.00020289668 0.00079479784 0.008459142 0.0044962387 -0.009162891 0.0098128375 -0.0011096437 0.00041411 0.00512934 -0.0061263954 -0.00068013876 0.0012321939 0.007166648 0.004326446 -0.0018758146 -0.00832499 -0.0044199727 0.008862934 -0.009681625 0.009732051 5.188729e-06 -0.0008984352 0.009570269 0.009058319 0.008629087 0.008994016 -0.009978453 0.0072788717 -0.00988789 -0.008147132 -0.008608827 0.002420816 0.007720174 -0.0068282424 -0.0024657228 -0.002650826 -0.0043145926 -0.00077639474 0.0046706847 0.0041225874 -0.002956143 -0.0035668768 -0.0024440172 -0.0039067524 0.004033874 0.009295161 0.0077573634 -0.008055267 -0.005608273 -0.00936786 -0.0061051114 0.0037087908 -0.0057286285 0.0021598933 0.009011344 0.0038066148 0.0012850083 0.008798218 0.0066229673 -0.00061109324 -0.0059724757 -0.00077100884 0.006755495 0.00769229 -0.0040514655
듯 0.009639659 0.0026643802 0.005230189 -0.005456386 0.004474195 -0.00025758913 -0.009262994 0.0058811335 -0.009250868 -0.006629461 0.0023061878 0.008841154 -0.0019795822 0.0070987367 0.005118162 0.00388562 -0.006090517 0.004747218 -0.008665154 -0.0049211993 0.00578714 -0.0081014745 0.0059633884 -0.0037575862 -2.6000589e-05 -0.007174716 -0.0067896107 -0.0035315477 0.008399014 0.005592915 -0.0094714835 -0.006486569 0.0036057958 -0.008592324 0.0064535653 0.0067907777 -0.009461353 0.008074879 0.0075315568 -0.0025260437 0.0015692427 -0.0060875653 0.0064228377 0.007817656 0.004095102 -0.00912863 0.0046072705 -0.0030247406 -0.0021486678 0.0062880497 0.002032945 0.004034087 -0.0064191045 0.005177975 -0.0037996154 -0.00015276851 0.0065550436 0.003961349 0.0069041317 -0.0037183184 0.0033374948 0.0075559258 -0.003531346 0.0054184706 -0.00988737 0.009013397 0.003949993 0.00584274 0.004053941 0.004866359 -0.0034178158 -0.006011315 -0.0019618827 0.0011879058 -0.0027911314 -0.008531756 -0.0061543146 0.008206333 0.008994654 0.0059859073 -0.0043763584 0.0005671848 -0.009026802 0.007454428 0.00038764827 0.0072373333 -0.0052405847 -0.002362979 0.003192623 0.0036648985 -0.006092987 -0.0072459225 0.0019252637 -0.009044626 0.0063083535 0.005879915 -0.0035147476 -0.0061781076 -0.007996933 -0.0022510234
자기 0.006516481 3.6949346e-05 -0.00779619 0.009236644 -0.008500874 0.0050746463 0.006852644 0.002070498 -0.008992645 0.00601659 -0.008364065 -0.0054199807 0.009905921 -0.008044492 -0.007457342 -0.0051085004 0.0036017022 0.001517364 -0.005827738 -0.0039490424 0.008903395 0.009774759 0.010083907 0.0010031187 0.0037602647 0.0013731048 0.0012686882 0.0044889967 0.0020210778 0.00057417905 -0.0027462577 -0.0066674524 0.008269463 -0.0061053107 0.0027233814 -0.00021982635 -0.0036474399 -0.005760214 0.002665741 -0.0064788884 -0.0076804506 -0.003150979 0.0046609933 0.0063209436 -0.0014118252 0.0071698246 -0.008041421 -0.0047470294 -0.007820503 -0.005856715 0.0075565972 -0.0100221 -0.0088373 -0.010007191 0.009162732 -0.0026026382 0.0013096544 -0.0063055404 -0.0032965154 0.00035054726 -0.0027008017 -0.0073073115 -0.0065459893 0.0022242127 -0.010009695 0.0013420287 -0.0017263216 0.008874271 -0.001034955 0.006564544 -0.0073752874 -0.0074702096 0.006035626 0.00066605315 -0.0047109392 -0.0024684223 0.00892743 -0.009285656 -0.004224853 0.0011215857 -0.00064061844 0.009203538 -0.0023430986 -0.0062349923 -0.007917912 -0.009963981 -0.0076185185 -0.005344023 -0.0054212804 -0.0011799192 7.6812146e-05 -0.004595607 0.0021922507 0.004204096 0.009929137 -0.0041891793 0.005407833 0.006560346 -0.0034388353 -0.007432415
육아 -0.0037134367 -0.0069732275 0.0066516884 0.009630113 0.008419753 -0.009144459 0.0053830296 0.0058582164 0.0056231427 -0.008468023 -0.00016543025 -0.007188854 -0.00909595 0.002554836 0.009925849 0.006304641 -0.0069933347 0.0021783123 -0.004032086 0.009544143 -0.008511712 0.009995343 -0.0064485623 -0.007147692 0.0016179674 -0.0004996819 -0.008780145 -0.00074098934 -0.0006124675 -0.006249266 0.0061489535 0.003291168 0.008616737 0.007297173 -0.0066496823 0.005268886 0.0057658465 0.0053252922 0.0047768443 -0.0052150185 0.004275785 0.00095283304 0.00018777052 -0.0062196106 0.0016853304 0.0052503175 -0.009532406 0.008661865 0.0033145754 4.441245e-05 -0.0030125866 -0.00021206676 0.006133834 0.004930626 -0.0063060094 0.008051713 -0.00037668823 -0.00831866 0.008442234 0.005231144 0.0035089776 0.008164363 -0.0077964975 -0.00617034 -0.0024097203 -0.003974808 -0.0015281987 -0.00023583497 -0.0088437665 0.0022018682 0.0024987475 -0.0006232596 0.0052965335 0.0013927743 0.0063004955 -0.002134896 0.00874967 -0.0015624904 0.0026197575 -0.0038205194 0.005779472 0.0029422399 0.00013872063 0.009416719 -0.008049023 0.009688266 0.0009040281 -0.001943647 -0.0038733578 -0.009007583 -0.0018796808 0.0028704659 0.0065683606 0.009315352 -0.008288632 0.009421449 -0.00860113 0.003326733 0.00824436 -0.0025518064
으로 -0.008189424 -0.008326258 0.0012159051 -0.0006300613 -0.009349335 0.0025487982 0.0026436716 0.0055085486 0.0042179767 0.0030987475 -0.01051639 0.005318209 0.004273804 -0.007747904 -0.0021210779 2.8032377e-05 -0.0007064293 -0.0013874377 -0.0056736013 -0.00058304175 0.004761207 -0.0006442264 0.0011525364 0.0019258558 -0.0041375486 -0.00797135 0.008768433 -0.009928654 -0.0027601414 -0.0010058993 -0.0073389444 0.0018421828 0.008420586 -0.0015811948 0.008118198 0.0009965198 -0.005896948 -0.0025145917 -0.0011090043 0.0056801196 0.007133463 0.00586675 -0.006008752 -0.0068472745 0.006298682 0.0023181618 0.005036705 0.00028613867 0.008114287 -0.00868347 0.010102297 -0.009047886 -0.0016965041 0.0062676556 -0.009581459 0.0045984476 -0.0068648346 -0.0070497794 0.0015928324 0.0020517653 -0.0029490127 0.007950675 -0.007160713 9.083181e-05 0.008256269 0.0023756549 -0.0068218736 0.0041051153 -0.0058181346 0.0010145896 0.0027779764 0.0078687845 0.007948585 -0.0050422023 0.0098066 -0.005447509 0.0077271955 -0.0081746625 -0.008280279 -0.0011677954 -0.008521473 -0.0036302865 -0.000989859 0.0006791959 -0.010274451 -0.006711235 -0.0072033782 0.0001941079 0.0056971875 0.00018527449 0.010600329 -0.0037811925 0.007956021 0.0061562127 0.008924997 0.00061430986 -0.00014303315 0.0014544969 -0.009654317 0.009106064
엄마 -0.00294238 0.0077760946 0.0021575203 0.0031459974 -0.0011408904 -0.010323678 0.001684485 0.0038419662 -0.0102051785 -0.004070083 -0.0026938908 -0.005609007 0.0039237575 0.0021102808 0.0043210853 -0.006834593 -0.005812932 0.004299447 0.006663244 0.005297157 0.004782917 -0.0073112696 0.008512453 -0.0072305514 -0.007953096 0.008621203 -0.0029923774 -0.009706645 -0.0033133507 0.0060542147 -0.0025644242 0.005073727 0.00028477964 0.0040216143 0.0010644533 -0.00870748 -0.0036473547 0.008244845 0.0012004861 -0.0064659133 0.0070861885 0.0069675893 0.0072239856 0.0002235896 -0.008965971 -0.0037923278 0.0047265035 -0.0064810705 0.009972199 -0.009645524 -0.007913887 -0.005791129 0.0063015637 -0.007724677 0.008624052 -0.009773733 0.0037672778 0.0030782202 -0.000408441 0.009759809 0.005047498 0.00039124786 0.0046968595 0.006072609 0.002627574 0.0095983585 -0.0012052485 -0.007830001 -0.0048604347 -0.0011876081 -0.0074222893 -0.0012841979 0.008342945 -0.0051513496 0.005322069 0.0047275927 -0.0007766093 0.0008331987 0.0055324067 -0.0066640507 0.0036240413 0.0088569075 -0.0038101722 -0.006944921 -0.009472628 -0.009220141 0.0041402197 0.0057552713 0.0074943905 -0.0011462809 0.0015168134 0.0032119919 -0.009952342 -0.009318919 0.005302501 -0.008050786 -0.0029884705 -0.0047754506 0.006224214 -0.0035065569
응원 0.009818828 0.00072468113 -0.0051747197 -0.0034820247 0.0014087415 -0.005973376 0.007722477 0.010248029 0.003903204 -0.007589269 -0.006344143 -0.00040233476 -0.0011304611 -0.005555337 0.008064703 0.0060396153 -0.0041692476 0.00198273 0.0048828307 0.0020075336 0.008848063 -0.0012990372 -0.0064001647 -0.0009001793 -0.008581375 0.009809994 -0.008718954 -0.0017744874 -0.0030737994 0.0034132407 0.005359194 -0.008270167 -0.004072562 0.00030195442 0.0040043495 0.0057128645 -0.0012547257 -0.0011635006 -0.008142242 0.0042491807 -0.0076648644 0.0028512776 -0.0034072828 -0.0077479053 0.00699583 -0.0006295249 -0.009942829 -0.009286411 0.00070459535 -0.008077678 0.004138965 0.002703153 0.0031860105 -0.00581278 0.0077127246 -0.008933738 0.007754129 -0.00083160645 -0.001879848 0.0041945833 -0.0027351677 -0.004486942 -0.002593983 -0.0067924294 -0.00086213025 -0.005150913 0.0048144055 -0.009184569 -0.0050776177 -0.009030619 -0.009926997 -0.0005588111 -0.0075004855 -0.0057727615 0.0031700747 -0.0011913505 0.0034346096 0.008040697 -0.010223636 0.0063903183 -0.008421137 0.0063433964 0.007138126 0.009549533 -0.008283192 0.003228574 -0.007879866 -0.00087934785 -0.004860733 -0.008432147 0.0053079277 0.004805635 -0.003969611 -0.0077574886 0.0043181553 -0.0035969494 -0.008440685 -0.004929007 -0.0018584977 0.008741447
서 -0.0068184957 0.0074490774 0.0064053335 -0.004630243 -0.0015764618 -0.003097634 0.0033310994 0.00037415576 -0.0029130618 -0.009213738 0.0060454872 -0.010203281 -0.00865321 0.0014829584 0.002978768 -0.00028839486 0.00041404276 0.0021254234 0.001608569 0.0071126083 -0.003269165 -0.0073596854 -0.0077329148 0.0076145646 0.001852487 -0.0057953196 0.006047454 0.008227812 0.007836531 -0.0067799888 -0.004893026 -0.001902969 -0.0061959503 0.0046974076 0.00557304 -0.0057024457 0.007201627 -0.008427283 0.0059587574 -0.0054368842 0.0020399694 -0.003750172 0.003351552 0.007943041 -0.0013168297 -0.005249593 -0.0089861145 0.003690207 0.0042862017 0.0069110566 -0.0041256454 -0.010450222 0.007038265 -0.004542036 0.0040909722 0.008236415 -0.0038379363 0.0014492982 -0.0042891293 -0.006414733 -0.0058873645 -0.00011434302 -0.007765953 -0.002284312 -0.0029961078 0.00703911 0.0015275814 0.0063653523 0.0033905006 -0.0031753506 -0.0053211944 0.009916427 0.007505341 -0.009094908 0.005585384 0.008375091 0.009393834 -0.008318105 -0.0023988688 0.0011847697 0.002647462 -0.0018481412 -0.005108993 0.007092157 0.006717646 -0.00070905243 -0.0056688073 -0.00402287 -0.004915492 0.004345106 0.0010814841 -0.0022745102 -0.0091819465 -0.0015429063 0.0070784483 0.0067738364 0.004444084 -0.0034426774 0.009333745 0.00059366645
의사 0.0007505247 0.0062988694 -0.0064755534 0.0067229923 0.009810374 0.0031193905 0.0036820027 0.0052508833 -0.002257601 -0.008405274 0.0010060736 0.00049730897 -0.0066513554 0.001829739 0.005528718 -0.007597015 0.0025499414 0.007429715 -0.008865039 0.0028929254 -0.008331048 -0.007925475 0.0074959286 -0.007770999 -0.0016308168 -0.007975012 -0.008248069 -0.007379808 0.00022043196 0.001959891 -0.007693844 -0.007814403 -0.0028830552 -0.002035708 -0.006338911 -0.0036083718 0.0036438948 0.0024221127 0.0063131414 0.0036859352 -0.0008639856 0.0022227026 0.009106003 0.0021662384 0.00195496 0.00089788967 -0.009693843 0.0053870515 0.0052270633 0.00022784542 0.00950549 -0.006401564 0.0032277342 -0.00793647 -0.009213396 0.0021698894 0.004759938 0.0061668027 -0.009591777 0.0045692804 0.002190184 0.0040500783 -0.00093232666 0.005273029 0.006767905 -0.008068326 -0.009798472 0.0075759506 -0.0015907402 -0.008955583 -0.0043984316 0.0013858022 0.008980245 -0.0017903242 -0.00080687867 -0.0070849084 -0.0076485667 0.001342266 -0.00083416706 -0.0077040903 0.00050345366 -0.009249454 -0.0029337795 0.004935101 0.001039546 0.007788378 0.0066909962 -0.00069348764 0.0055168457 0.0063095493 0.009288512 0.009243549 0.0048542647 0.004833128 0.007902262 -0.0011346883 -0.005562033 0.008378987 0.0013025131 -0.0052160034
마음 -0.0016050916 -0.005129178 0.009198405 0.003474147 0.0043431134 0.006045092 0.008534542 -0.003606681 -0.0064934827 -0.0039621787 -0.004170826 -0.009896079 -0.0003894994 -0.008342548 0.009875949 -0.0036906975 -0.0062734047 -0.008712869 -0.0036329501 -0.010130605 0.0009305205 0.0053054937 -0.0025238718 0.007481184 -0.0021829628 -0.007296466 -0.003506647 -0.003365737 -0.007428018 -0.009642747 -0.003690725 -0.00142877 0.0052994806 -0.007748409 -0.004924554 0.0022558852 -0.0016598309 0.0029938158 -0.0021324153 0.0039313375 0.007995545 -0.008411864 0.0038572485 0.0063295453 -0.0005986919 0.006502075 -0.005859519 -0.004530302 -0.0077888262 0.009449748 -0.0091244 -0.003983673 -0.00020564663 -0.005008908 0.009412338 -0.006796838 -0.007951443 0.009185867 -0.0091894865 0.010172059 -0.004295155 0.0057009 -0.0006386561 -0.004480524 -0.008131913 -0.006159357 0.0071894294 0.0069709187 -0.0004955584 0.006841754 0.0036347085 0.004291062 0.0034116686 -0.009834249 0.009588163 -0.007691693 -0.0030751075 0.001029797 0.004692 -0.009231196 0.0011620541 0.0062089483 -0.0091977175 0.010401607 -0.005376499 0.009286609 -0.0063187513 0.0072367755 0.010079914 -0.00923509 0.0008717166 -0.007552996 0.008163076 0.009785651 -0.0053754486 0.001367708 -0.0018460652 -0.008469692 0.0011111392 -0.010116543
한테 0.0020211516 -0.007490234 0.0057888124 0.007741432 -0.0024906513 -0.004575007 -0.009292747 0.005927949 0.002525703 0.008677081 0.0028277065 -0.0032489165 0.0037141955 0.00868361 0.009480119 0.007440265 -0.008564423 -0.0080342395 0.007204723 -0.0080553545 0.0037147468 0.007881396 -0.0029359509 0.006565914 -0.008509114 0.0064497204 0.005218546 0.0032236248 -0.008373051 0.009231475 0.008636327 -0.0014002603 0.0044980184 0.00615464 -0.0019568799 0.006363578 -0.004045012 -0.0019907833 -0.0015179176 -0.004793624 -0.0010859503 -0.008067798 0.0038019107 0.009286133 0.004901843 0.0061304932 -0.005021409 0.0048131184 -0.0065209246 -0.004812389 0.010347081 0.0058425697 -0.0049920464 -0.00623763 0.0071786474 0.0028771744 0.006819689 -0.006889458 -0.0016895519 -0.00072513375 -0.00036786968 0.0023068236 -0.0068766032 0.0039194613 -0.0033317397 0.008482322 -0.0008395863 0.009754082 -0.001516773 0.005610143 -0.007975173 -0.008928764 1.8179066e-05 -0.0025983017 0.010237461 0.0048361304 -0.0055251643 0.0071894256 -9.255282e-06 -0.009463435 0.0051628104 -0.0021822995 -0.009938342 0.009715743 0.0070037753 0.008376804 0.0004963416 0.008326489 0.005705358 -0.006704318 0.010039648 -0.003342237 -0.010100256 0.008668419 -0.004399617 0.008954245 -0.0075247535 0.008685352 -0.005502996 0.0038352096
무서운 0.0092868265 0.00482019 -0.00202837 -0.0048554214 -0.009477173 0.0034591847 0.007647524 -0.0036630218 0.0054065543 0.006749478 -0.009478175 0.0015908163 -0.0068053743 -0.004168191 0.0010892078 -0.007337035 -0.004112744 -0.007866682 -0.0073426827 -0.0077018333 0.010162656 0.00829012 -0.00013674112 -0.0026575204 0.00601789 0.0013251597 -0.009598341 -0.007327606 0.0007844265 0.008076706 0.0035906776 0.010047773 0.0068898615 -2.741443e-05 0.008386429 0.009849922 0.008284601 0.008772688 -0.009771708 0.0029500292 -0.008063002 -0.0077545093 -0.008434328 0.003542488 2.528107e-05 -0.006416256 0.0049826205 0.008069435 0.0043903873 0.008049972 -0.0039537135 -0.007155939 0.003877931 -0.0030046853 -0.007363185 0.003809079 -0.002941786 -0.005363916 0.0019266424 0.007180464 0.006226817 0.0003448825 0.00852352 0.0023656797 0.0060509103 -0.0007501873 0.0024570734 0.006781072 -0.010561346 0.0063061365 0.0010287422 0.006508958 -0.0011347194 -0.0029238444 -0.0051127593 -0.0025322414 -0.0023928075 -0.0051652077 0.00045945164 0.008083515 0.004717195 -0.007839202 -0.007916131 -0.0018457768 0.0038445885 -0.0093539795 0.0062267235 0.0037560735 -0.0022504271 0.00954808 0.008767986 0.0009154402 0.004567012 -0.009059559 -0.007914981 -0.0024593933 0.009628201 0.0025499226 0.005973604 -0.0069969245
보고 0.0040044645 0.000693141 -0.0008635232 -0.003207471 0.0050688037 -0.009426364 0.005301786 0.006313584 -0.0026919802 -0.004344708 -0.0077231056 -0.0067159915 -0.005090169 0.0031567395 -0.0047185486 -0.0013907937 -0.008892241 -0.0036645625 -0.0009864084 -0.008460874 0.0034806568 0.009789503 0.0047283736 0.0015999305 -0.005032465 -0.0010988577 0.002033922 0.001626215 0.008632311 -0.0007666673 0.0071402974 0.005911563 0.0032857622 0.007250424 -0.0050246636 -0.003627321 0.007000841 0.008305474 0.0030519473 -0.0044895513 0.007567306 0.0024574588 -0.00025841565 0.008949087 0.0044154017 0.0039248844 -0.00028238876 -0.008935445 -0.0030724495 0.002453512 -0.0055669923 0.006836773 0.0075006383 -0.009021494 -0.0054719155 -0.0059230626 -0.00046159452 -0.0018637783 -0.0024200159 -0.0020547507 0.0036294986 0.009620643 -0.0046145357 -0.00861392 0.003492747 -0.0065096687 0.006897765 0.0028739728 -0.008254445 -0.007599996 -0.009412354 0.0023442253 0.0029280495 0.002442171 0.00034958034 0.001048604 0.003080256 -0.0016049606 -0.008408947 -0.0006687565 0.0035466214 -0.002796799 -0.0024645955 -0.0017323418 0.007255451 -0.0031429902 0.009450141 -0.0036898393 -0.009731297 -0.0065520857 -0.003971453 0.0013806373 0.0052022003 0.0023160314 0.009548308 0.001118592 0.005804731 -3.0859403e-05 -0.0020490424 0.0061824736
불쌍하다 0.0017684072 0.008509378 -0.0081514055 -0.008595735 -0.00057459116 -0.002309747 -0.0020583738 0.00030162884 -0.0054005235 -0.008134682 0.007922881 -0.0036785202 -0.0027490342 -0.0017209422 -0.0011566036 -0.009335116 -0.0017956349 -0.0016239408 0.008564636 -0.008655805 -0.004415577 -0.0020352164 0.0030839725 -0.0062512546 -0.005821431 -0.007969959 0.0053330413 -0.008857368 -0.0035321177 0.0004846047 0.0016767565 -0.00975553 0.009005276 -0.0020842738 0.00036007713 -0.008352497 -0.008169752 0.0033478306 0.0038111792 0.002451563 0.005820854 -0.0073490934 -0.0011179682 -0.0024360945 -0.0013220635 0.0042481553 0.0010654972 -0.0073314407 0.003324836 0.0064123347 -0.0061210436 0.0028565251 -0.0041051744 0.008679593 0.004069755 0.0022867306 -0.00083962554 -0.009250353 0.008218297 -0.0016808574 0.007252171 0.00397235 -0.008390442 -0.0009799011 0.0022680594 -0.0024500922 0.009949565 -0.0044198497 -0.0076520857 0.003956412 -0.0037993724 -0.0067353314 0.0024470657 0.0051032007 -0.005474051 -0.0041236095 -0.006999039 0.0013858887 -0.005206422 0.008650721 0.0005547996 0.0017732789 -0.0036868115 0.008091045 -0.00052080164 -0.008207824 -0.007375118 0.00067294907 0.008258782 0.0031735078 -0.0050480138 -0.006790666 -0.009897234 0.004014785 -0.008988431 0.0035966155 0.0019046498 -0.0012983812 -0.009729245 0.0056874915
고 -0.00049511186 -0.009781202 -0.0076595186 0.008698467 0.0020211071 -0.008780836 -0.0005463666 0.0064566964 -0.0097167175 -0.007085322 -0.001335471 -0.010412807 0.00051009643 0.0019324525 0.008687184 0.00074653974 0.001293277 0.004603991 -0.004490238 0.006743297 0.00050737674 -0.0006282513 -0.009475364 0.0004672639 0.0065945047 0.0016356563 -0.008530948 -0.0037265706 -0.006379577 0.0061027636 -0.006236906 0.0053980215 -0.0049749333 -0.0069170315 -0.007737632 0.004475957 -0.008918484 -0.006337173 -0.007421209 -0.004798377 -0.00393807 0.0010464648 0.0063970084 -0.0010087015 -0.0053031757 0.0012455189 0.0053544445 -0.005242833 -0.005269952 0.005266815 0.006719369 -0.008388824 0.008467212 -0.009894557 -0.0076351063 -0.0058038817 0.0019975307 -7.565936e-05 0.0028352505 0.0073911753 0.0046505984 -0.003017195 -0.006537275 -0.008709592 -0.0008466795 0.00997707 -0.0076066935 0.0041501215 0.003808304 -0.0039538625 -0.0072748875 -0.0051873713 -0.004610235 -0.0072927196 0.0062619396 -0.007572808 -0.0028223882 0.0041776523 -0.00016600247 -0.0077812057 -0.0051083732 0.0033216455 0.00208043 -0.0012419729 -0.0008451363 0.0024406652 0.0015420066 -0.0021163183 0.005912718 -0.007550039 0.0069269105 -0.009885751 -0.0022598435 0.0069974726 -0.0028838404 0.007002703 0.0058775344 -0.007895052 0.00016789901 -0.004711985
사람 -0.008544031 -0.0007225332 0.0065606344 0.008937706 -0.0048403153 -0.00312371 -0.0057985135 0.00199577 0.0025038202 -0.009930422 0.0019073543 -0.009438915 0.0005419242 0.004744374 -0.005461667 -0.00014169175 -0.002317107 -0.009115006 -0.0026182851 0.0038746418 -0.008094319 -0.006046112 -5.5593075e-05 0.007930731 0.0012259914 0.009869293 -0.008037028 0.008831131 -0.005090641 -0.006291829 -0.007468821 0.0017601362 -0.0025469486 0.007248262 -0.00051988155 0.003091035 0.005937628 -0.009283963 -0.00239276 -0.0054433276 -0.008763946 0.0029473545 0.0022521154 -0.0022976014 -0.0017408774 -0.007065359 -0.0036982386 0.0012534222 0.00805772 0.0073648994 -0.0034518726 0.002922352 -0.0024585093 -0.004783906 -0.003840193 -0.006057777 0.0036916065 -0.008014906 -0.008353692 -0.0043206443 0.0071520726 0.0018916957 0.0054407814 0.007864493 -0.0067910003 -0.0044517713 0.0078042937 0.005453803 0.004192213 0.009575556 0.008633213 -0.0025628144 0.0014664222 0.005272265 0.009092562 0.010129448 -0.008089862 -0.005394148 0.004585274 0.0008272499 -0.00035359868 0.0072939354 0.005905754 -0.00645904 -0.0027851455 -0.008810248 0.007117926 0.003472255 -0.001895885 0.0020522578 0.008318608 0.008292675 0.0059769326 0.0032839673 0.002201172 0.008585213 0.0013962149 -0.00019452238 -0.00949246 0.0024467239
위 -0.0088362405 0.0068677245 -0.005885821 -0.0016795682 0.0010189741 -0.0024537486 -0.009045541 0.0049068485 -0.007079515 -0.009052418 0.003636299 -0.0012561538 0.006608962 -0.0070130783 0.0008769278 -0.00094950834 0.005863591 -0.010308137 0.0057304217 -0.0095619345 -0.0076022926 0.0005666386 -0.0025232283 -0.004034094 -0.005649294 0.004211827 -0.009872059 0.0009830551 0.003881434 -8.7068925e-05 0.00011731582 0.0072706267 -0.009395114 -0.0092129735 0.0043116393 0.009387606 -0.007897226 -0.008987754 -0.0008834196 -0.009662501 0.0020125953 0.008704612 -0.006211524 -0.0067281174 0.009003485 -0.0010420949 -0.0039419704 -0.0025533894 -0.008708197 -0.004385451 -0.0038195038 -0.00064651255 0.00082433835 0.007559486 0.0065439227 -0.0012694753 -0.0097965365 0.0025578623 -0.0067412653 0.009389014 0.0036182536 -0.00092334807 0.0064871195 -0.0037518223 -0.0039137136 -7.4458876e-05 0.008646098 0.0065115895 0.0012588127 0.0040700147 -0.0032665427 0.0094960425 -0.0067694597 -0.003472999 -0.005076072 0.009071248 -0.0032884607 -0.0024786254 0.0069007548 -0.009706974 -0.0033632556 0.0025038037 -0.006798315 0.009701928 0.0012142885 -0.0053409263 0.005140523 0.008594068 0.0014463587 0.007057182 -0.0062821996 -0.0035157083 0.009734977 0.005741045 0.002359936 -0.0031951729 0.004715161 0.0019365995 0.008699127 -5.6082252e-05
이번 0.008215588 -0.0057686246 -0.007720864 -0.0013177703 0.0031192887 -0.0023280268 0.005960368 -0.0074416725 -0.009273226 0.0075512696 0.006050011 -0.00422734 -0.003934085 -0.0035661568 2.0963285e-05 0.008763879 0.0010187236 -0.0025554958 -0.0036306635 -0.0025902556 -0.009076855 0.006817987 -0.008888676 -0.003195995 -0.0074703614 0.008948686 0.005694626 -0.000679268 0.00368235 -0.0023260561 0.010168004 -0.0034717342 0.0048899166 -0.0038786612 0.00961572 0.009949501 0.0063265027 -0.0006094041 -0.0018804542 -0.009329916 0.009321707 -0.008920063 -0.0065940637 0.0057979613 -0.0020537872 0.007874195 -0.008473916 0.009384695 0.0024327533 -0.008439294 0.004167904 -0.0054181856 0.0063160034 0.006436188 -0.008888309 0.0067091454 0.0054657767 0.0064705824 -0.0076411916 -0.0064392476 -0.009071513 0.0054354738 -0.004240597 0.004338839 0.004379795 0.008431497 0.0025362119 -0.00066716445 0.00086125254 0.0033655916 -0.008960713 -0.0057608723 -0.0006489906 0.004688061 5.054078e-05 -0.00955298 -0.00033265745 0.007047044 0.005880617 0.0035037934 -0.004874515 -0.0040832134 -0.0025460243 -0.005299059 -0.008784096 -0.00063177303 0.0018369865 0.005296363 0.004113717 0.008897464 -0.0063158907 0.009555279 -0.0034551476 0.0008276687 -0.0036370838 -0.0037800672 -0.0010234234 -0.008150932 0.0093536 0.004320806
수희 -0.0024682314 0.0023120514 0.007748149 -0.005425319 0.0040497435 3.3723678e-05 0.0029671956 -0.0011812467 -0.010410804 0.0055567054 -0.0017448311 -0.008809663 0.00090113044 -0.0062100035 0.0078940885 -0.006563019 -0.0014337613 -0.0009545098 -0.004486081 -0.004031785 0.0074807326 0.0017236947 -0.009093824 -0.000506857 -0.009855828 -0.0031318823 0.0044483007 0.0035574744 -0.0060118954 0.0015990481 0.006276581 -0.00739119 -0.0031437965 -0.002557355 -0.009008057 0.0028118324 0.0064259116 0.0018531417 0.0021915413 -0.0013434828 -0.0006951589 -0.006846964 -0.00072857644 0.006780707 0.003031549 0.00031475493 0.0075617954 0.002924083 -0.007268499 0.007452383 0.009698772 -0.009867483 0.0072840434 -0.007677082 -0.0006129486 0.0048151365 -0.005492452 -0.008018576 -0.007968151 -0.009702684 -0.006799469 0.009671548 0.0027531665 -0.009446839 0.0082762325 0.0075205658 0.008165097 0.0100640645 -0.009084761 -0.0019780742 0.0018152853 0.0025740068 0.0052489657 -0.007981037 0.005076951 0.010166015 -0.008929834 0.0077572474 0.002801229 -0.0041554985 -0.0018030652 -0.008838444 -0.007910405 0.0064472873 -0.0032284097 0.009906383 -0.007937969 -0.0064107995 0.0066324277 0.008097039 0.004313928 0.007486142 0.006325176 -0.005571554 0.009484544 -0.006163531 -0.0025661283 -0.0066143875 0.006431733 -0.004413826
더 0.002524324 -0.0014819428 -0.0012841962 -0.0055762487 -0.0057195397 -0.00426007 0.0007638249 0.0026174993 -0.0037253757 0.0017135259 -0.0061542555 0.009597055 -0.0007235863 -0.0069690244 -0.0018145891 0.007537742 -0.00096067396 -0.0056463857 -0.008296577 -0.006495361 -0.0027695792 0.007690478 -0.006928619 0.0012111306 -0.00030344244 0.003870402 -0.008286799 0.0077785803 -0.0029827987 0.005529528 -0.009201495 0.005172804 -0.007792073 -0.0034227439 -0.0011493195 -0.0028879363 -0.00072289834 -0.0006020583 0.0042495825 -0.0028968567 -0.004138868 -0.006744165 0.008328098 0.004955004 0.00935438 0.005267624 -0.0049188314 0.008284554 -0.006667248 0.0031162223 -0.003057664 -0.00026700416 0.0037185615 -0.0027840796 -0.0046291025 -0.0018816241 0.00068351475 0.006465463 -0.006493929 0.0050529917 -0.0038764859 -0.007902029 -0.005844877 0.0012030838 0.008302642 0.0081319 0.009488835 0.0075963098 -0.0036680007 -0.0018135959 0.008643617 0.0069790776 0.006562351 0.006836712 0.0018397853 0.0025739693 -0.008275277 0.007359849 0.008887755 -0.0070909765 0.000833817 0.0085288 0.0031864832 0.007898038 0.0075166468 -0.00198548 0.009021574 0.006458907 -0.0013396249 0.00036324226 0.010312807 0.005949858 -0.0068605714 -0.0031892152 -0.0027674392 0.0036037173 0.0014249893 -0.009397206 0.002613739 0.009576082
하신 0.0019765282 0.004462584 0.0020811157 0.008249563 0.00889684 0.0027237742 -0.002431787 0.0043979506 -0.0077878335 0.008030983 -0.0045027426 0.009598892 -0.0096512735 -0.0026049595 0.008936602 -0.0042766435 -0.0019301206 0.004983198 0.009210072 -0.0007410809 -0.006582749 0.010071858 -0.00930649 0.0011601745 0.005419918 -0.007863453 -0.005899254 -0.009312153 -0.00021807429 0.0051388238 -0.008057612 -0.0030714122 0.008655611 -0.00455008 0.003125156 0.004072548 -0.003588156 -0.00575861 0.008106965 -0.0029690803 0.009008057 -0.0028326516 0.0030515073 0.0057989103 0.0006718436 0.0042808508 -0.006079367 0.008396705 -0.0015782808 -0.0043401923 0.005377962 0.009415116 -0.0056488225 0.0008017493 0.004072474 -0.0025959662 0.00073212513 0.008671846 0.007255296 -0.006200155 -0.0031929268 0.009318944 -0.00049251446 -0.009825166 -0.0010760498 -0.006629473 0.0009933248 0.0012730364 -0.004743367 -0.004161157 0.008775265 0.0049203266 0.002982476 0.0018103257 0.008398413 -0.0048364433 0.006139352 -0.0011790296 -0.007990557 -0.009794535 -0.0019330049 0.0077664475 0.0018590906 -0.008581991 0.001099261 -0.0037534186 -0.003993602 0.008472083 0.006317815 0.00058079936 0.002879474 0.0009223784 -0.010102041 0.0032217833 0.007775952 0.0042071166 0.002671711 -0.003941313 0.002509881 -0.0077791526
뭔가 0.0038410763 0.0024697157 -0.00033006415 -0.0004800974 0.0027217984 0.0018324369 0.001548576 0.009807126 0.0034366203 0.0013220322 -0.003288049 -0.0064306557 -0.009233698 -0.0032514099 0.0044066836 0.0073819496 0.000648251 -0.005114942 0.0035646535 -0.0042695566 -0.0006092766 0.008767459 0.008434737 -0.0003735519 -0.0059678787 0.0036614446 0.009590376 0.008606565 -0.0019915958 0.0071495897 0.0094876485 -0.009637509 0.009129134 -4.3166707e-05 -0.0052672047 0.0040753805 0.009068992 -0.0076675853 0.0066327937 -0.0067782756 -0.007866102 0.0052925153 -0.0046048346 0.0049209967 0.0074126115 0.009551336 0.0054621776 -0.008750096 0.0033046883 -0.008892978 -0.00026274845 0.00954987 -0.004994538 0.0041442523 -0.005866136 -0.007968036 0.008111751 0.0032289757 0.006953814 0.0030528568 0.001052173 0.0037534668 -0.0085352305 0.006420786 -0.0049080886 0.0046846895 -0.005411395 0.0013613659 0.0037479117 -0.0021034963 -0.0076572187 -0.0059303544 -0.009763116 0.009625049 -0.00433855 -0.0009217942 -0.009126215 -0.00473412 -0.0052063726 0.0030521583 0.005433627 0.0033056545 0.009643462 0.0022650247 0.009801623 0.0075556356 0.0028534557 0.002536797 -0.0072421394 -0.002253909 0.00604774 -0.00806325 0.0021632267 -0.0075150863 0.010144926 0.00027272085 0.0010994367 -0.0052009495 0.006294796 -0.0071607963
소름 -0.007858421 0.0068382993 -0.0033461996 -0.0009437287 0.005511655 0.004000072 0.006560162 0.008103474 0.0052906703 -0.009338111 0.004821858 0.008689408 -0.0038621733 0.0012380525 -0.0030561069 -0.0035467427 0.008925171 -0.0007291135 0.0033782844 -0.00654179 0.006095039 -0.0035210657 -0.0046652495 0.0019926773 0.0095375115 -0.0061214985 0.0031340434 -0.0012380983 -0.007455026 -0.004243155 -0.0076130643 0.0059099584 -0.002495424 -0.0054504755 0.0008751116 0.0052094795 0.00941897 -0.01030135 -0.0006302792 -0.0018081071 -0.0027827548 -0.00094666117 0.0083243605 -0.0017843271 0.009709832 0.00024384128 -0.001424196 0.007009253 0.0070974887 0.0006817295 -0.00016421868 0.005650834 -0.003894781 0.00455844 -0.0003293579 -0.0060473992 0.0068224985 -0.0042220354 0.0014929888 -0.0063827396 0.002538039 0.005777231 0.0049722306 -0.008408792 -0.0065684547 0.007319839 0.003442776 0.0015340779 -0.0068294834 -0.001105962 -0.009483978 0.0016781078 -0.004232319 0.0004477153 0.0048917783 0.0024908895 -0.0071086893 0.000593564 -0.007125198 -0.0038799425 0.0014050934 0.0076965746 -0.006992968 0.003391432 0.008072307 0.009959685 0.006325139 -0.006793352 0.0043318835 0.009031437 0.004664751 0.0026627104 -0.0015719507 0.0037587394 0.004915543 0.009410247 -0.0035400337 -0.009516383 0.006969387 -0.006081852
말 -0.0010629621 0.0016376843 -0.0012543368 -0.004022973 0.0008636259 -0.009943802 0.0014410858 -0.0035168384 -0.005962809 0.00365632 0.0013257584 0.0034611013 0.0009023236 -0.009537854 0.010042197 -0.0038298413 -0.002154049 0.006858994 5.6568235e-05 0.0026327171 0.002410174 0.0023312813 0.006899432 0.0093587795 -0.00063833996 -0.0033472872 0.0043153428 -0.008447473 0.008295289 0.0025209868 0.0061634392 0.0027886564 -0.001230921 0.000908778 -0.0048102085 0.009520539 0.0050175246 0.0031351259 -0.005203293 -0.009141316 0.007868281 0.0026882389 -0.0042490438 -0.008639692 -0.0039650183 0.0012243853 -0.009276732 9.590552e-06 0.0029544206 -0.009856639 3.403159e-05 -0.006412192 -0.003501628 -0.0016319677 -0.010113389 -0.0035934043 -0.0069000563 -0.007308659 0.0011946603 0.0026104199 0.009365074 0.008881226 -0.006493881 -0.0095022265 0.007616019 0.005577507 0.0071366387 -0.0025915871 -0.005567636 -0.0042571607 -0.00845385 0.0060916175 -0.003058784 0.008684257 -0.0055669826 0.009946332 -0.004438431 0.008744333 -0.0056731417 -0.007563312 0.007426896 -0.00990445 -0.009028279 0.0054338463 -0.009890347 0.005221575 0.0038914895 -0.006831297 0.003462867 0.0016436343 0.009057665 0.002931834 -0.0051865247 -0.0022493803 0.007190447 -0.006337539 0.009602593 -0.0035267756 -0.004570857 -0.0043426543
닥터 0.0028467414 -0.009851079 0.0030855346 -0.004415172 0.009853997 -0.005411413 -0.00770206 0.0043673213 0.008817621 0.0024770473 -0.0026582475 0.0032121171 -0.00888968 -0.004251018 -0.004238804 0.00164249 -0.0063764704 -0.007899109 -0.006850426 0.0049182912 0.0029272207 0.008769241 0.002641002 0.0051298747 0.0039983257 0.004555439 -0.005160934 0.00125503 9.2868315e-05 0.0054622865 -0.0063272 -0.0006314112 0.0041799946 -0.005022373 -0.00855881 0.0060041524 -0.00088213297 -4.2363878e-05 -0.0064332616 0.008169577 0.00086990325 0.0013374967 -0.00036107464 0.0008621681 0.0059941304 -0.009329456 0.0021185018 -0.005555397 0.009693732 0.004438727 -0.005371537 -0.0017221941 -0.0057256417 0.008469077 0.008884022 0.0023844058 0.009664991 -0.004805312 0.0022030338 -0.0049650096 -0.00887235 -0.0042308546 -0.0013712009 -0.006075135 -0.004856043 0.00095312233 0.00013059721 -0.007997799 0.0064478884 0.0017089422 -0.009666036 -0.0011603822 -0.007437341 0.00776606 -0.0008945472 0.008033474 0.005203005 -0.0042260103 -0.009674622 -0.0060978695 0.008669454 -0.0017662757 -0.0006754347 0.00082815235 -0.008471513 0.004131204 -0.008161512 0.009793178 -0.007740155 0.0079485485 -0.0017505503 -0.0019009038 -0.002311979 0.0011202621 0.0029675842 0.0019643207 -0.00041204985 0.007147036 -0.0062397663 -0.008066034
그 -0.0074537443 0.0064806268 -0.0019195004 -0.0047040656 0.0050254287 -0.008209957 0.0029867233 0.010389089 0.006685098 -0.0030952126 0.0020131131 0.0047254185 0.009550432 -0.0026826384 0.0013543472 -0.0045166886 -0.0030819352 0.0006359185 0.002152075 -0.005826048 0.0044541117 -0.0051063565 -0.004364247 -0.009140344 0.0075145173 0.0043388465 -0.0024353731 0.008332022 0.001771562 -0.00975959 -0.007637961 -0.0041314615 -0.0071307705 0.007234537 0.0050111134 0.0026201138 -0.00070842874 -0.007851686 0.005850251 -0.005716135 -0.002865584 -0.006074744 -0.002174496 -0.009255564 0.0034442954 -0.0074870205 0.006489799 -0.0074873813 -0.0058653075 0.00023175965 -0.007819772 0.004970113 -0.0043356526 0.00025114144 0.007701183 0.003225407 -4.4297067e-05 0.0076593375 -0.000566574 0.005672472 0.0059178197 -0.00807611 0.0018450767 -0.009737807 -0.0016552524 0.008699323 -0.0023298946 -0.004562916 0.00233585 0.0075731277 0.0063293795 -0.006398933 0.007286808 0.007465162 -0.005275105 -0.001091397 -0.00053151685 -0.009528872 -0.0026308272 0.009910614 -0.002833934 -0.007866424 -0.0045235334 -0.009001132 0.0018314171 0.0058708303 0.000932465 -0.0030968974 0.009892072 -0.009115809 -0.0043017077 -0.00962049 0.009495219 -0.0018247816 -0.0049173096 -0.007599689 0.008437105 -0.0031816459 -0.0056183957 0.0036169146
